{"learner":{"attributes":{"scikit_learn":"{\"_estimator_type\": \"regressor\"}"},"feature_names":[],"feature_types":[],"gradient_booster":{"model":{"gbtree_model_param":{"num_parallel_tree":"1","num_trees":"200"},"iteration_indptr":[0,1,2,3,4,5,6,7,8,9,10,11,12,13,14,15,16,17,18,19,20,21,22,23,24,25,26,27,28,29,30,31,32,33,34,35,36,37,38,39,40,41,42,43,44,45,46,47,48,49,50,51,52,53,54,55,56,57,58,59,60,61,62,63,64,65,66,67,68,69,70,71,72,73,74,75,76,77,78,79,80,81,82,83,84,85,86,87,88,89,90,91,92,93,94,95,96,97,98,99,100,101,102,103,104,105,106,107,108,109,110,111,112,113,114,115,116,117,118,119,120,121,122,123,124,125,126,127,128,129,130,131,132,133,134,135,136,137,138,139,140,141,142,143,144,145,146,147,148,149,150,151,152,153,154,155,156,157,158,159,160,161,162,163,164,165,166,167,168,169,170,171,172,173,174,175,176,177,178,179,180,181,182,183,184,185,186,187,188,189,190,191,192,193,194,195,196,197,198,199,200],"tree_info":[0,0,0,0,0,0,0,0,0,0,0,0,0,0,0,0,0,0,0,0,0,0,0,0,0,0,0,0,0,0,0,0,0,0,0,0,0,0,0,0,0,0,0,0,0,0,0,0,0,0,0,0,0,0,0,0,0,0,0,0,0,0,0,0,0,0,0,0,0,0,0,0,0,0,0,0,0,0,0,0,0,0,0,0,0,0,0,0,0,0,0,0,0,0,0,0,0,0,0,0,0,0,0,0,0,0,0,0,0,0,0,0,0,0,0,0,0,0,0,0,0,0,0,0,0,0,0,0,0,0,0,0,0,0,0,0,0,0,0,0,0,0,0,0,0,0,0,0,0,0,0,0,0,0,0,0,0,0,0,0,0,0,0,0,0,0,0,0,0,0,0,0,0,0,0,0,0,0,0,0,0,0,0,0,0,0,0,0,0,0,0,0,0,0,0,0,0,0,0,0],"trees":[{"base_weights":[-4.701207E-3,-3.5505813E-1,1.0894395E-1,-4.4432917E-1,-2.1897043E-1,5.190254E-2,3.2339212E-1,-5.6146267E-3,-2.241266E-2,-1.23238675E-2,-8.362826E-3,9.6737E-4,6.6622286E-3,1.1238979E-2,2.4041584E-2],"categories":[],"categories_nodes":[],"categories_segments":[],"categories_sizes":[],"default_left":[0,0,0,0,0,0,0,0,0,0,0,0,0,0,0],"id":0,"left_children":[1,3,5,7,9,11,13,-1,-1,-1,-1,-1,-1,-1,-1],"loss_changes":[1.5606881E1,1.0689793E0,3.6040127E0,2.393055E-2,1.5674591E-2,6.19726E-1,8.5450125E-1,0E0,0E0,0E0,0E0,0E0,0E0,0E0,0E0],"parents":[2147483647,0,0,1,1,2,2,3,3,4,4,5,5,6,6],"right_children":[2,4,6,8,10,12,14,-1,-1,-1,-1,-1,-1,-1,-1],"split_conditions":[7.521339E-1,5.1005524E-1,7.4978137E-1,2.0362863E-2,6.9659495E-1,4.9297222E-1,8.513156E-1,-5.6146267E-3,-2.241266E-2,-1.23238675E-2,-8.362826E-3,9.6737E-4,6.6622286E-3,1.1238979E-2,2.4041584E-2],"split_indices":[2,2,0,0,2,1,0,0,0,0,0,0,0,0,0],"split_type":[0,0,0,0,0,0,0,0,0,0,0,0,0,0,0],"sum_hessian":[3.9E2,9.5E1,2.95E2,5.6E1,3.9E1,2.34E2,6.1E1,1E0,5.5E1,2.3E1,1.6E1,1.68E2,6.6E1,3.9E1,2.2E1],"tree_param":{"num_deleted":"0","num_feature":"3","num_nodes":"15","size_leaf_vector":"1"}},{"base_weights":[5.1282793E-3,-3.1488928E-1,1.1793064E-1,-2.1710344E-2,-1.8722154E-1,6.81416E-2,3.4928825E-1,-9.821086E-3,1.4261067E-3,1.3619515E-3,7.4308473E-3,2.8646968E-3,1.8956624E-2],"categories":[],"categories_nodes":[],"categories_segments":[],"categories_sizes":[],"default_left":[0,0,0,0,0,0,0,0,0,0,0,0,0],"id":1,"left_children":[1,3,5,-1,7,9,11,-1,-1,-1,-1,-1,-1],"loss_changes":[1.4404432E1,1.5029392E0,3.3743267E0,0E0,1.08816266E-1,7.9911387E-1,4.3142366E-1,0E0,0E0,0E0,0E0,0E0,0E0],"parents":[2147483647,0,0,1,1,2,2,4,4,5,5,6,6],"right_children":[2,4,6,-1,8,10,12,-1,-1,-1,-1,-1,-1],"split_conditions":[7.784014E-1,4.953054E-1,6.286904E-1,-2.1710344E-2,5.9919596E-1,4.9297222E-1,7.4978137E-1,-9.821086E-3,1.4261067E-3,1.3619515E-3,7.4308473E-3,2.8646968E-3,1.8956624E-2],"split_indices":[2,2,1,0,1,1,0,0,0,0,0,0,0],"split_type":[0,0,0,0,0,0,0,0,0,0,0,0,0],"sum_hessian":[3.97E2,1.03E2,2.94E2,5.2E1,5.1E1,2.43E2,5.1E1,4.9E1,2E0,1.62E2,8.1E1,5E0,4.6E1],"tree_param":{"num_deleted":"0","num_feature":"3","num_nodes":"13","size_leaf_vector":"1"}},{"base_weights":[1.650112E-3,-3.0874422E-1,1.0194199E-1,-4.0494362E-1,-1.7770824E-1,7.20629E-2,4.0715477E-1,-5.228733E-3,-2.0431893E-2,-9.4512915E-3,7.1578175E-3,1.3447364E-3,7.4064084E-3,8.173979E-3,2.103247E-2],"categories":[],"categories_nodes":[],"categories_segments":[],"categories_sizes":[],"default_left":[0,0,0,0,0,0,0,0,0,0,0,0,0,0,0],"id":2,"left_children":[1,3,5,7,9,11,13,-1,-1,-1,-1,-1,-1,-1,-1],"loss_changes":[1.2109926E1,1.1255693E0,2.651786E0,1.7186165E-2,1.795795E-1,9.2022717E-1,1.6728401E-2,0E0,0E0,0E0,0E0,0E0,0E0,0E0,0E0],"parents":[2147483647,0,0,1,1,2,2,3,3,4,4,5,5,6,6],"right_children":[2,4,6,8,10,12,14,-1,-1,-1,-1,-1,-1,-1,-1],"split_conditions":[7.759285E-1,5.1005524E-1,8.438101E-1,2.0362863E-2,5.9919596E-1,5.055284E-1,8.513156E-1,-5.228733E-3,-2.0431893E-2,-9.4512915E-3,7.1578175E-3,1.3447364E-3,7.4064084E-3,8.173979E-3,2.103247E-2],"split_indices":[2,2,0,0,1,1,0,0,0,0,0,0,0,0,0],"split_type":[0,0,0,0,0,0,0,0,0,0,0,0,0,0,0],"sum_hessian":[3.87E2,9.4E1,2.93E2,5.3E1,4.1E1,2.68E2,2.5E1,1E0,5.2E1,4E1,1E0,1.69E2,9.9E1,2E0,2.3E1],"tree_param":{"num_deleted":"0","num_feature":"3","num_nodes":"15","size_leaf_vector":"1"}},{"base_weights":[2.4404002E-3,-2.7542913E-1,9.573075E-2,-3.8557354E-1,-1.61768E-1,5.3208467E-2,3.0533665E-1,-1.9503575E-2,-4.579165E-3,-8.567664E-3,6.9788727E-3,9.876264E-4,5.5910344E-3,3.934927E-3,1.6868247E-2],"categories":[],"categories_nodes":[],"categories_segments":[],"categories_sizes":[],"default_left":[0,0,0,0,0,0,0,0,0,0,0,0,0,0,0],"id":3,"left_children":[1,3,5,7,9,11,13,-1,-1,-1,-1,-1,-1,-1,-1],"loss_changes":[9.488096E0,1.0893874E0,2.425894E0,2.5104046E-2,1.5967548E-1,4.468435E-1,3.0735588E-1,0E0,0E0,0E0,0E0,0E0,0E0,0E0,0E0],"parents":[2147483647,0,0,1,1,2,2,3,3,4,4,5,5,6,6],"right_children":[2,4,6,8,10,12,14,-1,-1,-1,-1,-1,-1,-1,-1],"split_conditions":[7.784014E-1,5.1005524E-1,6.286904E-1,5.0153774E-1,5.9919596E-1,4.92574E-1,7.4978137E-1,-1.9503575E-2,-4.579165E-3,-8.567664E-3,6.9788727E-3,9.876264E-4,5.5910344E-3,3.934927E-3,1.6868247E-2],"split_indices":[2,2,1,1,1,1,0,0,0,0,0,0,0,0,0],"split_type":[0,0,0,0,0,0,0,0,0,0,0,0,0,0,0],"sum_hessian":[3.64E2,9.1E1,2.73E2,4.5E1,4.6E1,2.28E2,4.5E1,4.4E1,1E0,4.5E1,1E0,1.46E2,8.2E1,6E0,3.9E1],"tree_param":{"num_deleted":"0","num_feature":"3","num_nodes":"15","size_leaf_vector":"1"}},{"base_weights":[-7.4719796E-3,-2.9204145E-1,7.9077765E-2,-3.5108256E-1,-1.557452E-1,3.3731114E-2,2.728182E-1,-1.884492E-2,-1.2665301E-2,-8.551405E-3,6.8044006E-3,6.947468E-4,4.601816E-3,1.0291861E-2,1.7998595E-2],"categories":[],"categories_nodes":[],"categories_segments":[],"categories_sizes":[],"default_left":[0,0,0,0,0,0,0,0,0,0,0,0,0,0,0],"id":4,"left_children":[1,3,5,7,9,11,13,-1,-1,-1,-1,-1,-1,-1,-1],"loss_changes":[9.505418E0,6.6955805E-1,2.5912995E0,6.102848E-2,1.5261656E-1,2.7745038E-1,2.528124E-1,0E0,0E0,0E0,0E0,0E0,0E0,0E0,0E0],"parents":[2147483647,0,0,1,1,2,2,3,3,4,4,5,5,6,6],"right_children":[2,4,6,8,10,12,14,-1,-1,-1,-1,-1,-1,-1,-1],"split_conditions":[7.521339E-1,6.180098E-1,5.9919596E-1,4.5504135E-1,5.743759E-1,4.9297222E-1,8.513156E-1,-1.884492E-2,-1.2665301E-2,-8.551405E-3,6.8044006E-3,6.947468E-4,4.601816E-3,1.0291861E-2,1.7998595E-2],"split_indices":[2,2,1,2,1,1,0,0,0,0,0,0,0,0,0],"split_type":[0,0,0,0,0,0,0,0,0,0,0,0,0,0,0],"sum_hessian":[3.84E2,8.9E1,2.95E2,6.1E1,2.8E1,2.4E2,5.5E1,4.6E1,1.5E1,2.7E1,1E0,1.8E2,6E1,3.3E1,2.2E1],"tree_param":{"num_deleted":"0","num_feature":"3","num_nodes":"15","size_leaf_vector":"1"}},{"base_weights":[1.9580817E-3,-2.5453377E-1,8.95558E-2,-3.4789383E-1,-1.3892008E-1,5.0658904E-2,2.897037E-1,-4.2937933E-3,-1.7564058E-2,-7.4054273E-3,6.634291E-3,9.91508E-4,5.2146344E-3,2.270193E-3,1.5594465E-2],"categories":[],"categories_nodes":[],"categories_segments":[],"categories_sizes":[],"default_left":[0,0,0,0,0,0,0,0,0,0,0,0,0,0,0],"id":5,"left_children":[1,3,5,7,9,11,13,-1,-1,-1,-1,-1,-1,-1,-1],"loss_changes":[8.560675E0,9.986596E-1,2.1963015E0,1.687336E-2,1.3195556E-1,3.9310932E-1,2.351563E-1,0E0,0E0,0E0,0E0,0E0,0E0,0E0,0E0],"parents":[2147483647,0,0,1,1,2,2,3,3,4,4,5,5,6,6],"right_children":[2,4,6,8,10,12,14,-1,-1,-1,-1,-1,-1,-1,-1],"split_conditions":[7.759285E-1,5.1005524E-1,6.286904E-1,2.0362863E-2,5.9919596E-1,4.9297222E-1,7.492881E-1,-4.2937933E-3,-1.7564058E-2,-7.4054273E-3,6.634291E-3,9.91508E-4,5.2146344E-3,2.270193E-3,1.5594465E-2],"split_indices":[2,2,1,0,1,1,0,0,0,0,0,0,0,0,0],"split_type":[0,0,0,0,0,0,0,0,0,0,0,0,0,0,0],"sum_hessian":[3.79E2,9.6E1,2.83E2,5.2E1,4.4E1,2.38E2,4.5E1,1E0,5.1E1,4.3E1,1E0,1.52E2,8.6E1,4E0,4.1E1],"tree_param":{"num_deleted":"0","num_feature":"3","num_nodes":"15","size_leaf_vector":"1"}},{"base_weights":[8.9317765E-3,-2.6117265E-1,8.17219E-2,-1.7034639E-2,-1.6975415E-1,3.6560502E-2,2.448203E-1,-1.0782922E-2,-7.433486E-3,-3.1991152E-3,2.3249516E-3,8.687713E-3,1.7133787E-2],"categories":[],"categories_nodes":[],"categories_segments":[],"categories_sizes":[],"default_left":[0,0,0,0,0,0,0,0,0,0,0,0,0],"id":6,"left_children":[1,3,5,-1,7,9,11,-1,-1,-1,-1,-1,-1],"loss_changes":[7.964361E0,5.673523E-1,2.340724E0,0E0,8.5885525E-3,2.5378639E-1,4.2029858E-1,0E0,0E0,0E0,0E0,0E0,0E0],"parents":[2147483647,0,0,1,1,2,2,4,4,5,5,6,6],"right_children":[2,4,6,-1,8,10,12,-1,-1,-1,-1,-1,-1],"split_conditions":[7.521339E-1,4.5504135E-1,5.9919596E-1,-1.7034639E-2,5.6712407E-1,8.139505E-1,8.513156E-1,-1.0782922E-2,-7.433486E-3,-3.1991152E-3,2.3249516E-3,8.687713E-3,1.7133787E-2],"split_indices":[2,2,1,0,2,2,0,0,0,0,0,0,0],"split_type":[0,0,0,0,0,0,0,0,0,0,0,0,0],"sum_hessian":[4.03E2,8.5E1,3.18E2,4.4E1,4.1E1,2.5E2,6.8E1,1E1,3.1E1,2.2E1,2.28E2,4.1E1,2.7E1],"tree_param":{"num_deleted":"0","num_feature":"3","num_nodes":"13","size_leaf_vector":"1"}},{"base_weights":[-3.336143E-3,-2.5011945E-1,7.561251E-2,-3.062006E-1,-1.1840359E-1,3.626535E-2,2.5200313E-1,-3.9168755E-3,-1.5425051E-2,-6.5832394E-3,6.65427E-3,4.448823E-4,4.775287E-3,9.28876E-3,1.6659485E-2],"categories":[],"categories_nodes":[],"categories_segments":[],"categories_sizes":[],"default_left":[0,0,0,0,0,0,0,0,0,0,0,0,0,0,0],"id":7,"left_children":[1,3,5,7,9,11,13,-1,-1,-1,-1,-1,-1,-1,-1],"loss_changes":[7.6368475E0,6.6548824E-1,2.0521803E0,1.0427952E-2,1.1757395E-1,3.9474094E-1,2.2845006E-1,0E0,0E0,0E0,0E0,0E0,0E0,0E0,0E0],"parents":[2147483647,0,0,1,1,2,2,3,3,4,4,5,5,6,6],"right_children":[2,4,6,8,10,12,14,-1,-1,-1,-1,-1,-1,-1,-1],"split_conditions":[7.521339E-1,6.180098E-1,6.0758007E-1,2.0362863E-2,5.743759E-1,4.9297222E-1,8.513156E-1,-3.9168755E-3,-1.5425051E-2,-6.5832394E-3,6.65427E-3,4.448823E-4,4.775287E-3,9.28876E-3,1.6659485E-2],"split_indices":[2,2,1,0,1,1,0,0,0,0,0,0,0,0,0],"split_type":[0,0,0,0,0,0,0,0,0,0,0,0,0,0,0],"sum_hessian":[3.9E2,9.4E1,2.96E2,6.5E1,2.9E1,2.43E2,5.3E1,1E0,6.4E1,2.8E1,1E0,1.67E2,7.6E1,3.1E1,2.2E1],"tree_param":{"num_deleted":"0","num_feature":"3","num_nodes":"15","size_leaf_vector":"1"}},{"base_weights":[-3.8869618E-3,-2.3135309E-1,7.467648E-2,-3.0523232E-1,-1.4084035E-1,3.2226842E-2,2.0788014E-1,-1.5441108E-2,-3.0537525E-3,-7.496969E-3,6.4879134E-3,7.7008293E-4,4.3216203E-3,-5.7558804E-3,1.1789254E-2],"categories":[],"categories_nodes":[],"categories_segments":[],"categories_sizes":[],"default_left":[0,0,0,0,0,0,0,0,0,0,0,0,0,0,0],"id":8,"left_children":[1,3,5,7,9,11,13,-1,-1,-1,-1,-1,-1,-1,-1],"loss_changes":[6.6829815E0,5.989642E-1,1.5652369E0,2.6716232E-2,1.3025409E-1,1.9201677E-1,6.3102937E-1,0E0,0E0,0E0,0E0,0E0,0E0,0E0,0E0],"parents":[2147483647,0,0,1,1,2,2,3,3,4,4,5,5,6,6],"right_children":[2,4,6,8,10,12,14,-1,-1,-1,-1,-1,-1,-1,-1],"split_conditions":[7.784014E-1,5.1005524E-1,5.79036E-1,5.0153774E-1,5.9919596E-1,5.055284E-1,8.3327943E-1,-1.5441108E-2,-3.0537525E-3,-7.496969E-3,6.4879134E-3,7.7008293E-4,4.3216203E-3,-5.7558804E-3,1.1789254E-2],"split_indices":[2,2,1,1,1,1,2,0,0,0,0,0,0,0,0],"split_type":[0,0,0,0,0,0,0,0,0,0,0,0,0,0,0],"sum_hessian":[3.72E2,9.5E1,2.77E2,5.1E1,4.4E1,2.11E2,6.6E1,5E1,1E0,4.3E1,1E0,1.62E2,4.9E1,5E0,6.1E1],"tree_param":{"num_deleted":"0","num_feature":"3","num_nodes":"15","size_leaf_vector":"1"}},{"base_weights":[-5.89694E-4,-2.2692935E-1,6.536554E-2,-2.8285846E-1,-1.14967525E-1,3.0601978E-2,1.9944057E-1,-3.432925E-3,-1.4270591E-2,-6.361703E-3,6.3257157E-3,8.334447E-4,4.3879175E-3,-5.5160513E-3,1.1427405E-2],"categories":[],"categories_nodes":[],"categories_segments":[],"categories_sizes":[],"default_left":[0,0,0,0,0,0,0,0,0,0,0,0,0,0,0],"id":9,"left_children":[1,3,5,7,9,11,13,-1,-1,-1,-1,-1,-1,-1,-1],"loss_changes":[5.8219366E0,5.185299E-1,1.4014962E0,1.2126446E-2,1.0792348E-1,1.9046104E-1,5.8422995E-1,0E0,0E0,0E0,0E0,0E0,0E0,0E0,0E0],"parents":[2147483647,0,0,1,1,2,2,3,3,4,4,5,5,6,6],"right_children":[2,4,6,8,10,12,14,-1,-1,-1,-1,-1,-1,-1,-1],"split_conditions":[7.521339E-1,6.180098E-1,5.9919596E-1,2.0362863E-2,5.743759E-1,5.212845E-1,8.3327943E-1,-3.432925E-3,-1.4270591E-2,-6.361703E-3,6.3257157E-3,8.334447E-4,4.3879175E-3,-5.5160513E-3,1.1427405E-2],"split_indices":[2,2,1,0,1,1,2,0,0,0,0,0,0,0,0],"split_type":[0,0,0,0,0,0,0,0,0,0,0,0,0,0,0],"sum_hessian":[3.88E2,8.7E1,3.01E2,5.7E1,3E1,2.4E2,6.1E1,1E0,5.6E1,2.9E1,1E0,1.94E2,4.6E1,5E0,5.6E1],"tree_param":{"num_deleted":"0","num_feature":"3","num_nodes":"15","size_leaf_vector":"1"}},{"base_weights":[3.2147674E-3,-1.9090056E-1,7.9437464E-2,-1.43053625E-2,-1.0698134E-1,4.270368E-2,2.1035512E-1,-5.930473E-3,4.127887E-3,8.3523913E-4,3.6347676E-3,2.8872795E-3,1.21717965E-2],"categories":[],"categories_nodes":[],"categories_segments":[],"categories_sizes":[],"default_left":[0,0,0,0,0,0,0,0,0,0,0,0,0],"id":10,"left_children":[1,3,5,-1,7,9,11,-1,-1,-1,-1,-1,-1],"loss_changes":[5.667235E0,8.3227634E-1,1.31352E0,0E0,1.3982719E-1,1.6721171E-1,2.888496E-1,0E0,0E0,0E0,0E0,0E0,0E0],"parents":[2147483647,0,0,1,1,2,2,4,4,5,5,6,6],"right_children":[2,4,6,-1,8,10,12,-1,-1,-1,-1,-1,-1],"split_conditions":[8.060705E-1,4.5504135E-1,7.4978137E-1,-1.43053625E-2,5.9919596E-1,4.393005E-1,5.9141254E-1,-5.930473E-3,4.127887E-3,8.3523913E-4,3.6347676E-3,2.8872795E-3,1.21717965E-2],"split_indices":[2,2,0,0,1,1,1,0,0,0,0,0,0],"split_type":[0,0,0,0,0,0,0,0,0,0,0,0,0],"sum_hessian":[3.81E2,1.07E2,2.74E2,4.9E1,5.8E1,2.15E2,5.9E1,5.5E1,3E0,1.16E2,9.9E1,1.1E1,4.8E1],"tree_param":{"num_deleted":"0","num_feature":"3","num_nodes":"13","size_leaf_vector":"1"}},{"base_weights":[4.914915E-3,-1.98747E-1,6.299253E-2,-2.4538381E-1,-9.171284E-2,1.9240644E-2,1.4987871E-1,-9.203472E-3,-1.3571963E-2,-5.6190672E-3,5.89926E-3,-2.5915508E-3,1.383982E-3,5.735885E-3,1.4871955E-2],"categories":[],"categories_nodes":[],"categories_segments":[],"categories_sizes":[],"default_left":[0,0,0,0,0,0,0,0,0,0,0,0,0,0,0],"id":11,"left_children":[1,3,5,7,9,11,13,-1,-1,-1,-1,-1,-1,-1,-1],"loss_changes":[4.6373444E0,4.1177607E-1,1.1565537E0,4.5890808E-2,1.3461542E-1,1.2378842E-1,4.9509263E-1,0E0,0E0,0E0,0E0,0E0,0E0,0E0,0E0],"parents":[2147483647,0,0,1,1,2,2,3,3,4,4,5,5,6,6],"right_children":[2,4,6,8,10,12,14,-1,-1,-1,-1,-1,-1,-1,-1],"split_conditions":[7.521339E-1,6.180098E-1,5.323339E-1,2.1013269E-1,4.7142336E-1,8.1915694E-1,8.513156E-1,-9.203472E-3,-1.3571963E-2,-5.6190672E-3,5.89926E-3,-2.5915508E-3,1.383982E-3,5.735885E-3,1.4871955E-2],"split_indices":[2,2,1,0,1,2,0,0,0,0,0,0,0,0,0],"split_type":[0,0,0,0,0,0,0,0,0,0,0,0,0,0,0],"sum_hessian":[3.9E2,8.6E1,3.04E2,5.9E1,2.7E1,2.03E2,1.01E2,2E1,3.9E1,2.5E1,2E0,2.1E1,1.82E2,8.3E1,1.8E1],"tree_param":{"num_deleted":"0","num_feature":"3","num_nodes":"15","size_leaf_vector":"1"}},{"base_weights":[-4.961552E-3,-1.8647517E-1,5.9381735E-2,-2.4004994E-1,-9.514988E-2,2.4392784E-2,1.8746588E-1,-9.090187E-3,-1.2881174E-2,-6.157582E-3,-2.9596344E-3,-2.8920162E-3,1.6794837E-3,5.6733917E-3,1.2549037E-2],"categories":[],"categories_nodes":[],"categories_segments":[],"categories_sizes":[],"default_left":[0,0,0,0,0,0,0,0,0,0,0,0,0,0,0],"id":12,"left_children":[1,3,5,7,9,11,13,-1,-1,-1,-1,-1,-1,-1,-1],"loss_changes":[4.507559E0,4.713254E-1,1.2726632E0,1.7649174E-2,3.197807E-2,1.7210785E-1,2.582202E-1,0E0,0E0,0E0,0E0,0E0,0E0,0E0,0E0],"parents":[2147483647,0,0,1,1,2,2,3,3,4,4,5,5,6,6],"right_children":[2,4,6,8,10,12,14,-1,-1,-1,-1,-1,-1,-1,-1],"split_conditions":[7.784014E-1,6.180098E-1,7.4978137E-1,2.1013269E-1,3.309487E-1,8.3327943E-1,6.611659E-1,-9.090187E-3,-1.2881174E-2,-6.157582E-3,-2.9596344E-3,-2.8920162E-3,1.6794837E-3,5.6733917E-3,1.2549037E-2],"split_indices":[2,2,0,0,0,2,1,0,0,0,0,0,0,0,0],"split_type":[0,0,0,0,0,0,0,0,0,0,0,0,0,0,0],"sum_hessian":[3.84E2,1E2,2.84E2,6.2E1,3.8E1,2.24E2,6E1,1.7E1,4.5E1,2E1,1.8E1,2.2E1,2.02E2,2.9E1,3.1E1],"tree_param":{"num_deleted":"0","num_feature":"3","num_nodes":"15","size_leaf_vector":"1"}},{"base_weights":[3.7820223E-3,-1.8536553E-1,5.677948E-2,-2.2966774E-1,-1.0065956E-1,2.5914298E-2,1.7236511E-1,-1.1614786E-2,-2.062513E-3,-5.5869985E-3,6.0708346E-3,-2.1803572E-3,1.7818451E-3,5.9216497E-3,1.3402275E-2],"categories":[],"categories_nodes":[],"categories_segments":[],"categories_sizes":[],"default_left":[0,0,0,0,0,0,0,0,0,0,0,0,0,0,0],"id":13,"left_children":[1,3,5,7,9,11,13,-1,-1,-1,-1,-1,-1,-1,-1],"loss_changes":[4.0302854E0,3.071158E-1,1.1157508E0,1.864171E-2,9.2309415E-2,1.698605E-1,3.0883086E-1,0E0,0E0,0E0,0E0,0E0,0E0,0E0,0E0],"parents":[2147483647,0,0,1,1,2,2,3,3,4,4,5,5,6,6],"right_children":[2,4,6,8,10,12,14,-1,-1,-1,-1,-1,-1,-1,-1],"split_conditions":[7.521339E-1,5.684604E-1,7.4978137E-1,5.0153774E-1,5.743759E-1,8.3327943E-1,8.513156E-1,-1.1614786E-2,-2.062513E-3,-5.5869985E-3,6.0708346E-3,-2.1803572E-3,1.7818451E-3,5.9216497E-3,1.3402275E-2],"split_indices":[2,2,0,1,1,2,0,0,0,0,0,0,0,0,0],"split_type":[0,0,0,0,0,0,0,0,0,0,0,0,0,0,0],"sum_hessian":[4E2,8.7E1,3.13E2,5.6E1,3.1E1,2.48E2,6.5E1,5.5E1,1E0,3E1,1E0,3E1,2.18E2,4.3E1,2.2E1],"tree_param":{"num_deleted":"0","num_feature":"3","num_nodes":"15","size_leaf_vector":"1"}},{"base_weights":[3.55663E-4,-2.0462732E-1,4.3087114E-2,-1.1826941E-2,-1.2802099E-1,1.4659674E-2,1.4869913E-1,-3.1774652E-3,-9.04272E-3,-3.7984494E-3,1.2469236E-3,-5.0260853E-3,8.557145E-3],"categories":[],"categories_nodes":[],"categories_segments":[],"categories_sizes":[],"default_left":[0,0,0,0,0,0,0,0,0,0,0,0,0],"id":14,"left_children":[1,3,5,-1,7,9,11,-1,-1,-1,-1,-1,-1],"loss_changes":[3.2497284E0,1.2617373E-1,9.195199E-1,0E0,6.00383E-2,2.2826216E-1,3.807782E-1,0E0,0E0,0E0,0E0,0E0,0E0],"parents":[2147483647,0,0,1,1,2,2,4,4,5,5,6,6],"right_children":[2,4,6,-1,8,10,12,-1,-1,-1,-1,-1,-1],"split_conditions":[6.7846805E-1,4.2326957E-1,5.79036E-1,-1.1826941E-2,2.6844385E-1,7.784014E-1,8.3327943E-1,-3.1774652E-3,-9.04272E-3,-3.7984494E-3,1.2469236E-3,-5.0260853E-3,8.557145E-3],"split_indices":[2,2,1,0,0,2,2,0,0,0,0,0,0],"split_type":[0,0,0,0,0,0,0,0,0,0,0,0,0],"sum_hessian":[3.69E2,6.3E1,3.06E2,4.3E1,2E1,2.42E2,6.4E1,1E1,1E1,2.4E1,2.18E2,5E0,5.9E1],"tree_param":{"num_deleted":"0","num_feature":"3","num_nodes":"13","size_leaf_vector":"1"}},{"base_weights":[-1.7492758E-3,-1.7646322E-1,5.0443683E-2,-2.1156588E-1,-1.0403428E-1,3.340965E-2,2.2648641E-1,-1.0797752E-2,-2.7361885E-3,-5.7594934E-3,6.0447156E-3,5.6954304E-4,3.9379713E-3,1.641216E-3,1.203332E-2],"categories":[],"categories_nodes":[],"categories_segments":[],"categories_sizes":[],"default_left":[0,0,0,0,0,0,0,0,0,0,0,0,0,0,0],"id":15,"left_children":[1,3,5,7,9,11,13,-1,-1,-1,-1,-1,-1,-1,-1],"loss_changes":[3.6473176E0,2.1189547E-1,9.160383E-1,3.017497E-2,9.422043E-2,2.8069317E-1,6.6245675E-2,0E0,0E0,0E0,0E0,0E0,0E0,0E0,0E0],"parents":[2147483647,0,0,1,1,2,2,3,3,4,4,5,5,6,6],"right_children":[2,4,6,8,10,12,14,-1,-1,-1,-1,-1,-1,-1,-1],"split_conditions":[7.521339E-1,5.6712407E-1,8.513156E-1,5.0153774E-1,5.9919596E-1,5.212845E-1,6.5739733E-1,-1.0797752E-2,-2.7361885E-3,-5.7594934E-3,6.0447156E-3,5.6954304E-4,3.9379713E-3,1.641216E-3,1.203332E-2],"split_indices":[2,2,0,1,1,1,1,0,0,0,0,0,0,0,0],"split_type":[0,0,0,0,0,0,0,0,0,0,0,0,0,0,0],"sum_hessian":[3.98E2,9.1E1,3.07E2,6E1,3.1E1,2.81E2,2.6E1,5.8E1,2E0,3E1,1E0,1.9E2,9.1E1,2E0,2.4E1],"tree_param":{"num_deleted":"0","num_feature":"3","num_nodes":"15","size_leaf_vector":"1"}},{"base_weights":[-1.5111731E-3,-1.5591215E-1,5.175436E-2,-2.0247231E-1,-8.2174085E-2,3.370773E-2,2.2428825E-1,-7.2633526E-3,-1.0998636E-2,-4.5162914E-3,5.893597E-3,4.1764378E-4,3.8599693E-3,1.1898816E-3,1.1554207E-2],"categories":[],"categories_nodes":[],"categories_segments":[],"categories_sizes":[],"default_left":[0,0,0,0,0,0,0,0,0,0,0,0,0,0,0],"id":16,"left_children":[1,3,5,7,9,11,13,-1,-1,-1,-1,-1,-1,-1,-1],"loss_changes":[3.174405E0,3.232546E-1,8.860587E-1,2.8112173E-2,7.587585E-2,2.8716627E-1,3.1288505E-2,0E0,0E0,0E0,0E0,0E0,0E0,0E0,0E0],"parents":[2147483647,0,0,1,1,2,2,3,3,4,4,5,5,6,6],"right_children":[2,4,6,8,10,12,14,-1,-1,-1,-1,-1,-1,-1,-1],"split_conditions":[7.784014E-1,5.684604E-1,8.513156E-1,2.1013269E-1,5.9919596E-1,5.055284E-1,6.5739733E-1,-7.2633526E-3,-1.0998636E-2,-4.5162914E-3,5.893597E-3,4.1764378E-4,3.8599693E-3,1.1898816E-3,1.1554207E-2],"split_indices":[2,2,0,0,1,1,1,0,0,0,0,0,0,0,0],"split_type":[0,0,0,0,0,0,0,0,0,0,0,0,0,0,0],"sum_hessian":[3.84E2,9.8E1,2.86E2,5.9E1,3.9E1,2.6E2,2.6E1,1.6E1,4.3E1,3.8E1,1E0,1.65E2,9.5E1,1E0,2.5E1],"tree_param":{"num_deleted":"0","num_feature":"3","num_nodes":"15","size_leaf_vector":"1"}},{"base_weights":[-1.3871336E-3,-1.5099269E-1,4.267953E-2,-1.8897955E-1,-8.4256865E-2,2.6060563E-2,2.1912767E-1,-9.6773645E-3,-2.3406157E-3,-5.202791E-3,-3.0988434E-3,3.6494294E-4,3.1856385E-3,1.1601344E-3,1.1316221E-2],"categories":[],"categories_nodes":[],"categories_segments":[],"categories_sizes":[],"default_left":[0,0,0,0,0,0,0,0,0,0,0,0,0,0,0],"id":17,"left_children":[1,3,5,7,9,11,13,-1,-1,-1,-1,-1,-1,-1,-1],"loss_changes":[2.491861E0,2.0209444E-1,8.5054606E-1,2.6006222E-2,8.1079155E-3,1.8885542E-1,2.9999375E-2,0E0,0E0,0E0,0E0,0E0,0E0,0E0,0E0],"parents":[2147483647,0,0,1,1,2,2,3,3,4,4,5,5,6,6],"right_children":[2,4,6,8,10,12,14,-1,-1,-1,-1,-1,-1,-1,-1],"split_conditions":[7.521339E-1,5.684604E-1,8.513156E-1,4.3858758E-1,6.9659495E-1,5.212845E-1,6.5739733E-1,-9.6773645E-3,-2.3406157E-3,-5.202791E-3,-3.0988434E-3,3.6494294E-4,3.1856385E-3,1.1601344E-3,1.1316221E-2],"split_indices":[2,2,0,1,2,1,1,0,0,0,0,0,0,0,0],"split_type":[0,0,0,0,0,0,0,0,0,0,0,0,0,0,0],"sum_hessian":[3.76E2,8.5E1,2.91E2,5.3E1,3.2E1,2.67E2,2.4E1,5.1E1,2E0,1.5E1,1.7E1,1.79E2,8.8E1,1E0,2.3E1],"tree_param":{"num_deleted":"0","num_feature":"3","num_nodes":"15","size_leaf_vector":"1"}},{"base_weights":[-1.4020192E-3,-1.6877596E-1,4.357738E-2,-1.8471313E-1,-4.7239405E-3,-2.2309112E-4,1.0362821E-1,-9.333695E-3,-1.5296281E-3,-1.1054621E-3,1.5088719E-3,4.216702E-3,8.655438E-3],"categories":[],"categories_nodes":[],"categories_segments":[],"categories_sizes":[],"default_left":[0,0,0,0,0,0,0,0,0,0,0,0,0],"id":18,"left_children":[1,3,5,7,-1,9,11,-1,-1,-1,-1,-1,-1],"loss_changes":[2.8079119E0,7.609129E-2,7.7331793E-1,1.3629675E-2,0E0,1.1444214E-1,1.5163171E-1,0E0,0E0,0E0,0E0,0E0,0E0],"parents":[2147483647,0,0,1,1,2,2,3,3,5,5,6,6],"right_children":[2,4,6,8,-1,10,12,-1,-1,-1,-1,-1,-1],"split_conditions":[7.075868E-1,6.180098E-1,4.92574E-1,5.9919596E-1,-4.7239405E-3,4.608142E-1,6.84952E-1,-9.333695E-3,-1.5296281E-3,-1.1054621E-3,1.5088719E-3,4.216702E-3,8.655438E-3],"split_indices":[2,2,1,1,0,0,1,0,0,0,0,0,0],"split_type":[0,0,0,0,0,0,0,0,0,0,0,0,0],"sum_hessian":[3.71E2,7.8E1,2.93E2,6.3E1,1.5E1,1.7E2,1.23E2,6.2E1,1E0,9.9E1,7.1E1,9.8E1,2.5E1],"tree_param":{"num_deleted":"0","num_feature":"3","num_nodes":"13","size_leaf_vector":"1"}},{"base_weights":[-2.6271264E-3,-1.5950105E-1,3.1913128E-2,-9.090119E-3,-1.06024295E-1,2.0423824E-2,2.0208259E-1,-2.0040718E-3,-7.2776596E-3,3.964946E-5,2.7566988E-3,1.0257125E-3,1.0527956E-2],"categories":[],"categories_nodes":[],"categories_segments":[],"categories_sizes":[],"default_left":[0,0,0,0,0,0,0,0,0,0,0,0,0],"id":19,"left_children":[1,3,5,-1,7,9,11,-1,-1,-1,-1,-1,-1],"loss_changes":[2.1020362E0,6.420672E-2,6.1760366E-1,0E0,5.411893E-2,2.0369166E-1,2.6461959E-2,0E0,0E0,0E0,0E0,0E0,0E0],"parents":[2147483647,0,0,1,1,2,2,4,4,5,5,6,6],"right_children":[2,4,6,-1,8,10,12,-1,-1,-1,-1,-1,-1],"split_conditions":[6.7846805E-1,4.5504135E-1,8.513156E-1,-9.090119E-3,2.1013269E-1,4.9297222E-1,6.509968E-1,-2.0040718E-3,-7.2776596E-3,3.964946E-5,2.7566988E-3,1.0257125E-3,1.0527956E-2],"split_indices":[2,2,0,0,0,1,1,0,0,0,0,0,0],"split_type":[0,0,0,0,0,0,0,0,0,0,0,0,0],"sum_hessian":[3.86E2,6.9E1,3.17E2,4.7E1,2.2E1,2.98E2,1.9E1,9E0,1.3E1,1.91E2,1.07E2,1E0,1.8E1],"tree_param":{"num_deleted":"0","num_feature":"3","num_nodes":"13","size_leaf_vector":"1"}},{"base_weights":[-3.8425988E-3,-1.1062339E-1,4.7749035E-2,-1.6141592E-1,-5.218871E-2,2.8305965E-2,1.4747128E-1,-5.57599E-3,-8.924374E-3,-5.884456E-3,-4.7233203E-4,1.8091232E-3,-2.4590713E-3,2.7491066E-3,8.049175E-3],"categories":[],"categories_nodes":[],"categories_segments":[],"categories_sizes":[],"default_left":[0,0,0,0,0,0,0,0,0,0,0,0,0,0,0],"id":20,"left_children":[1,3,5,7,9,11,13,-1,-1,-1,-1,-1,-1,-1,-1],"loss_changes":[2.1648085E0,3.714856E-1,5.09636E-1,3.801787E-2,1.6966523E-1,1.3788296E-1,4.4887364E-2,0E0,0E0,0E0,0E0,0E0,0E0,0E0,0E0],"parents":[2147483647,0,0,1,1,2,2,3,3,4,4,5,5,6,6],"right_children":[2,4,6,8,10,12,14,-1,-1,-1,-1,-1,-1,-1,-1],"split_conditions":[8.3327943E-1,6.180098E-1,6.286904E-1,2.1013269E-1,3.0179712E-1,9.966447E-1,7.6514995E-1,-5.57599E-3,-8.924374E-3,-5.884456E-3,-4.7233203E-4,1.8091232E-3,-2.4590713E-3,2.7491066E-3,8.049175E-3],"split_indices":[2,2,1,0,0,2,0,0,0,0,0,0,0,0,0],"split_type":[0,0,0,0,0,0,0,0,0,0,0,0,0,0,0],"sum_hessian":[3.91E2,1.27E2,2.64E2,6.7E1,6E1,2.22E2,4.2E1,1.9E1,4.8E1,2.3E1,3.7E1,2.02E2,2E1,6E0,3.6E1],"tree_param":{"num_deleted":"0","num_feature":"3","num_nodes":"15","size_leaf_vector":"1"}},{"base_weights":[-4.0907967E-3,-1.3266657E-1,3.5943024E-2,-8.41909E-3,-9.786954E-2,1.4933637E-2,1.1231673E-1,-2.40421E-3,-5.9941844E-3,-2.4953256E-3,1.2442546E-3,3.4161807E-5,6.5122815E-3],"categories":[],"categories_nodes":[],"categories_segments":[],"categories_sizes":[],"default_left":[0,0,0,0,0,0,0,0,0,0,0,0,0],"id":21,"left_children":[1,3,5,-1,7,9,11,-1,-1,-1,-1,-1,-1],"loss_changes":[2.0379832E0,1.0034227E-1,4.8290122E-1,0E0,4.9034566E-2,1.5481234E-1,1.3000625E-1,0E0,0E0,0E0,0E0,0E0,0E0],"parents":[2147483647,0,0,1,1,2,2,4,4,5,5,6,6],"right_children":[2,4,6,-1,8,10,12,-1,-1,-1,-1,-1,-1],"split_conditions":[7.521339E-1,4.2326957E-1,7.4978137E-1,-8.41909E-3,2.1013269E-1,8.3327943E-1,5.567208E-1,-2.40421E-3,-5.9941844E-3,-2.4953256E-3,1.2442546E-3,3.4161807E-5,6.5122815E-3],"split_indices":[2,2,0,0,0,2,1,0,0,0,0,0,0],"split_type":[0,0,0,0,0,0,0,0,0,0,0,0,0],"sum_hessian":[3.94E2,9.3E1,3.01E2,4.4E1,4.9E1,2.37E2,6.4E1,1.6E1,3.3E1,3.1E1,2.06E2,9E0,5.5E1],"tree_param":{"num_deleted":"0","num_feature":"3","num_nodes":"13","size_leaf_vector":"1"}},{"base_weights":[9.97588E-4,-1.407841E-1,3.159182E-2,-1.5202744E-1,-7.892709E-2,-3.9508343E-3,8.5342936E-2,-7.7867606E-3,-1.5451987E-3,-3.077883E-3,-7.1840077E-3,-2.7205595E-3,3.5749597E-4,3.1325046E-3,8.95273E-3],"categories":[],"categories_nodes":[],"categories_segments":[],"categories_sizes":[],"default_left":[0,0,0,0,0,0,0,0,0,0,0,0,0,0,0],"id":22,"left_children":[1,3,5,7,9,11,13,-1,-1,-1,-1,-1,-1,-1,-1],"loss_changes":[1.7351906E0,3.737986E-2,6.2887776E-1,2.1683931E-2,5.7767928E-3,1.1185848E-1,2.6736474E-1,0E0,0E0,0E0,0E0,0E0,0E0,0E0,0E0],"parents":[2147483647,0,0,1,1,2,2,3,3,4,4,5,5,6,6],"right_children":[2,4,6,8,10,12,14,-1,-1,-1,-1,-1,-1,-1,-1],"split_conditions":[6.7846805E-1,5.684604E-1,4.9297222E-1,4.3858758E-1,3.5606262E-1,8.060705E-1,8.513156E-1,-7.7867606E-3,-1.5451987E-3,-3.077883E-3,-7.1840077E-3,-2.7205595E-3,3.5749597E-4,3.1325046E-3,8.95273E-3],"split_indices":[2,2,1,1,0,2,0,0,0,0,0,0,0,0,0],"split_type":[0,0,0,0,0,0,0,0,0,0,0,0,0,0,0],"sum_hessian":[3.98E2,7E1,3.28E2,5.8E1,1.2E1,1.98E2,1.3E2,5.6E1,2E0,1.1E1,1E0,3.5E1,1.63E2,1.06E2,2.4E1],"tree_param":{"num_deleted":"0","num_feature":"3","num_nodes":"15","size_leaf_vector":"1"}},{"base_weights":[3.184281E-3,-1.1493625E-1,3.8375217E-2,-1.3858257E-1,-5.4628797E-2,2.7258333E-2,1.6045997E-1,-4.699345E-3,-7.7661625E-3,-3.2987152E-3,6.0088574E-3,4.229969E-4,2.8610784E-3,9.483964E-3,3.7329514E-3],"categories":[],"categories_nodes":[],"categories_segments":[],"categories_sizes":[],"default_left":[0,0,0,0,0,0,0,0,0,0,0,0,0,0,0],"id":23,"left_children":[1,3,5,7,9,11,13,-1,-1,-1,-1,-1,-1,-1,-1],"loss_changes":[1.6297086E0,1.2077391E-1,4.0550116E-1,3.3181667E-2,6.147667E-2,1.5610239E-1,4.8514843E-2,0E0,0E0,0E0,0E0,0E0,0E0,0E0,0E0],"parents":[2147483647,0,0,1,1,2,2,3,3,4,4,5,5,6,6],"right_children":[2,4,6,8,10,12,14,-1,-1,-1,-1,-1,-1,-1,-1],"split_conditions":[7.381183E-1,6.180098E-1,8.513156E-1,2.1013269E-1,5.743759E-1,4.92574E-1,9.7469753E-1,-4.699345E-3,-7.7661625E-3,-3.2987152E-3,6.0088574E-3,4.229969E-4,2.8610784E-3,9.483964E-3,3.7329514E-3],"split_indices":[2,2,0,0,1,1,2,0,0,0,0,0,0,0,0],"split_type":[0,0,0,0,0,0,0,0,0,0,0,0,0,0,0],"sum_hessian":[3.9E2,8.9E1,3.01E2,6.3E1,2.6E1,2.77E2,2.4E1,1.9E1,4.4E1,2.5E1,1E0,1.71E2,1.06E2,1.7E1,7E0],"tree_param":{"num_deleted":"0","num_feature":"3","num_nodes":"15","size_leaf_vector":"1"}},{"base_weights":[6.862073E-3,-1.2954101E-1,3.600845E-2,-1.3911578E-1,-6.727941E-2,1.8555997E-2,1.3144016E-1,-8.8312925E-4,-7.0468336E-3,-2.338317E-3,-6.810254E-3,-4.2164684E-4,1.8440193E-3,1.4947534E-3,7.5262347E-3],"categories":[],"categories_nodes":[],"categories_segments":[],"categories_sizes":[],"default_left":[0,0,0,0,0,0,0,0,0,0,0,0,0,0,0],"id":24,"left_children":[1,3,5,7,9,11,13,-1,-1,-1,-1,-1,-1,-1,-1],"loss_changes":[1.5352921E0,3.1177998E-2,5.271955E-1,1.0337591E-2,9.182837E-3,1.3384107E-1,9.045905E-2,0E0,0E0,0E0,0E0,0E0,0E0,0E0,0E0],"parents":[2147483647,0,0,1,1,2,2,3,3,4,4,5,5,6,6],"right_children":[2,4,6,8,10,12,14,-1,-1,-1,-1,-1,-1,-1,-1],"split_conditions":[6.7846805E-1,5.6712407E-1,6.286904E-1,2.0362863E-2,3.5606262E-1,3.8733712E-1,7.6514995E-1,-8.8312925E-4,-7.0468336E-3,-2.338317E-3,-6.810254E-3,-4.2164684E-4,1.8440193E-3,1.4947534E-3,7.5262347E-3],"split_indices":[2,2,1,0,0,1,0,0,0,0,0,0,0,0,0],"split_type":[0,0,0,0,0,0,0,0,0,0,0,0,0,0,0],"sum_hessian":[3.84E2,6.7E1,3.17E2,5.7E1,1E1,2.69E2,4.8E1,1E0,5.6E1,9E0,1E0,1.09E2,1.6E2,8E0,4E1],"tree_param":{"num_deleted":"0","num_feature":"3","num_nodes":"15","size_leaf_vector":"1"}},{"base_weights":[4.374012E-3,-8.156876E-2,4.1738067E-2,-6.7380266E-3,-4.645223E-2,1.5789147E-2,1.03947E-1,-1.9797294E-3,-9.548996E-3,1.1288313E-3,-3.5818291E-3,-3.9118896E-3,5.4847575E-3],"categories":[],"categories_nodes":[],"categories_segments":[],"categories_sizes":[],"default_left":[0,0,0,0,0,0,0,0,0,0,0,0,0],"id":25,"left_children":[1,3,5,-1,7,9,11,-1,-1,-1,-1,-1,-1],"loss_changes":[1.2397052E0,2.1228558E-1,4.3259326E-1,0E0,6.3798875E-2,1.1495675E-1,9.131312E-2,0E0,0E0,0E0,0E0,0E0,0E0],"parents":[2147483647,0,0,1,1,2,2,4,4,5,5,6,6],"right_children":[2,4,6,-1,8,10,12,-1,-1,-1,-1,-1,-1],"split_conditions":[8.3327943E-1,4.5504135E-1,5.5769265E-1,-6.7380266E-3,8.2262385E-1,1.0022751E0,8.4941655E-1,-1.9797294E-3,-9.548996E-3,1.1288313E-3,-3.5818291E-3,-3.9118896E-3,5.4847575E-3],"split_indices":[2,2,1,0,2,2,2,0,0,0,0,0,0],"split_type":[0,0,0,0,0,0,0,0,0,0,0,0,0],"sum_hessian":[3.84E2,1.16E2,2.68E2,4.5E1,7.1E1,1.9E2,7.8E1,6.9E1,2E0,1.77E2,1.3E1,2E0,7.6E1],"tree_param":{"num_deleted":"0","num_feature":"3","num_nodes":"13","size_leaf_vector":"1"}},{"base_weights":[-5.44857E-4,-9.251875E-2,3.708289E-2,-6.663143E-3,-6.351475E-2,1.6496833E-2,9.6176565E-2,-7.5802444E-3,-2.7626508E-3,1.0517356E-3,-1.8076294E-3,-6.9230213E-3,5.087259E-3],"categories":[],"categories_nodes":[],"categories_segments":[],"categories_sizes":[],"default_left":[0,0,0,0,0,0,0,0,0,0,0,0,0],"id":26,"left_children":[1,3,5,-1,7,9,11,-1,-1,-1,-1,-1,-1],"loss_changes":[1.2873765E0,1.1916411E-1,3.195709E-1,0E0,3.8928866E-2,4.782704E-2,1.02936804E-1,0E0,0E0,0E0,0E0,0E0,0E0],"parents":[2147483647,0,0,1,1,2,2,4,4,5,5,6,6],"right_children":[2,4,6,-1,8,10,12,-1,-1,-1,-1,-1,-1],"split_conditions":[8.1915694E-1,4.5504135E-1,5.79036E-1,-6.663143E-3,1.2456036E-1,9.966447E-1,8.3327943E-1,-7.5802444E-3,-2.7626508E-3,1.0517356E-3,-1.8076294E-3,-6.9230213E-3,5.087259E-3],"split_indices":[2,2,1,0,1,2,2,0,0,0,0,0,0],"split_type":[0,0,0,0,0,0,0,0,0,0,0,0,0],"sum_hessian":[3.7E2,1.07E2,2.63E2,4.3E1,6.4E1,1.96E2,6.7E1,4E0,6E1,1.81E2,1.5E1,1E0,6.6E1],"tree_param":{"num_deleted":"0","num_feature":"3","num_nodes":"13","size_leaf_vector":"1"}},{"base_weights":[-1.5577704E-3,-7.888065E-2,3.334085E-2,-1.1687662E-1,-3.577041E-2,1.417936E-2,9.6891135E-2,-3.7232195E-3,-6.561493E-3,-2.1266702E-3,5.3452123E-3,9.403438E-4,-2.0275828E-3,3.672585E-3,8.767842E-3],"categories":[],"categories_nodes":[],"categories_segments":[],"categories_sizes":[],"default_left":[0,0,0,0,0,0,0,0,0,0,0,0,0,0,0],"id":27,"left_children":[1,3,5,7,9,11,13,-1,-1,-1,-1,-1,-1,-1,-1],"loss_changes":[1.0847132E0,2.0057112E-1,3.3593407E-1,3.040576E-2,6.2441453E-2,5.4962125E-2,1.04828E-1,0E0,0E0,0E0,0E0,0E0,0E0,0E0,0E0],"parents":[2147483647,0,0,1,1,2,2,3,3,4,4,5,5,6,6],"right_children":[2,4,6,8,10,12,14,-1,-1,-1,-1,-1,-1,-1,-1],"split_conditions":[8.3327943E-1,6.180098E-1,5.9919596E-1,2.1013269E-1,7.492881E-1,9.9969614E-1,9.328212E-1,-3.7232195E-3,-6.561493E-3,-2.1266702E-3,5.3452123E-3,9.403438E-4,-2.0275828E-3,3.672585E-3,8.767842E-3],"split_indices":[2,2,1,0,0,2,0,0,0,0,0,0,0,0,0],"split_type":[0,0,0,0,0,0,0,0,0,0,0,0,0,0,0],"sum_hessian":[4E2,1.24E2,2.76E2,6.5E1,5.9E1,2.13E2,6.3E1,1.8E1,4.7E1,5.7E1,2E0,1.97E2,1.6E1,5E1,1.3E1],"tree_param":{"num_deleted":"0","num_feature":"3","num_nodes":"15","size_leaf_vector":"1"}},{"base_weights":[9.192831E-4,-8.024824E-2,3.1278543E-2,-5.978151E-3,-5.3589534E-2,7.0288866E-3,6.9318205E-2,-2.2792274E-3,-6.0352683E-3,-3.4284964E-3,5.146202E-4,2.6249334E-3,6.9088154E-3],"categories":[],"categories_nodes":[],"categories_segments":[],"categories_sizes":[],"default_left":[0,0,0,0,0,0,0,0,0,0,0,0,0],"id":28,"left_children":[1,3,5,-1,7,9,11,-1,-1,-1,-1,-1,-1],"loss_changes":[9.1425884E-1,9.944886E-2,2.4857396E-1,0E0,2.7807936E-2,4.166095E-2,1.1435288E-1,0E0,0E0,0E0,0E0,0E0,0E0],"parents":[2147483647,0,0,1,1,2,2,4,4,5,5,6,6],"right_children":[2,4,6,-1,8,10,12,-1,-1,-1,-1,-1,-1],"split_conditions":[7.784014E-1,4.2326957E-1,5.212845E-1,-5.978151E-3,7.631877E-1,8.060705E-1,8.513156E-1,-2.2792274E-3,-6.0352683E-3,-3.4284964E-3,5.146202E-4,2.6249334E-3,6.9088154E-3],"split_indices":[2,2,1,0,2,2,0,0,0,0,0,0,0],"split_type":[0,0,0,0,0,0,0,0,0,0,0,0,0],"sum_hessian":[3.69E2,1E2,2.69E2,3.9E1,6.1E1,1.65E2,1.04E2,5.6E1,5E0,6E0,1.59E2,8.5E1,1.9E1],"tree_param":{"num_deleted":"0","num_feature":"3","num_nodes":"13","size_leaf_vector":"1"}},{"base_weights":[-1.3989115E-3,-8.997587E-2,2.5419962E-2,-5.7353373E-3,-6.436426E-2,8.111301E-3,9.422375E-2,-1.0992024E-3,-4.11093E-3,5.8241276E-4,-7.881283E-3,-7.86866E-4,5.716575E-3],"categories":[],"categories_nodes":[],"categories_segments":[],"categories_sizes":[],"default_left":[0,0,0,0,0,0,0,0,0,0,0,0,0],"id":29,"left_children":[1,3,5,-1,7,9,11,-1,-1,-1,-1,-1,-1],"loss_changes":[9.097413E-1,4.8989356E-2,3.4936076E-1,0E0,3.299935E-2,1.4018023E-1,1.3225228E-1,0E0,0E0,0E0,0E0,0E0,0E0],"parents":[2147483647,0,0,1,1,2,2,4,4,5,5,6,6],"right_children":[2,4,6,-1,8,10,12,-1,-1,-1,-1,-1,-1],"split_conditions":[7.521339E-1,4.2326957E-1,7.4978137E-1,-5.7353373E-3,2.1013269E-1,6.4155704E-1,5.567208E-1,-1.0992024E-3,-4.11093E-3,5.8241276E-4,-7.881283E-3,-7.86866E-4,5.716575E-3],"split_indices":[2,2,0,0,0,1,1,0,0,0,0,0,0],"split_type":[0,0,0,0,0,0,0,0,0,0,0,0,0],"sum_hessian":[3.81E2,8.8E1,2.93E2,4.3E1,4.5E1,2.35E2,5.8E1,1.4E1,3.1E1,2.31E2,4E0,9E0,4.9E1],"tree_param":{"num_deleted":"0","num_feature":"3","num_nodes":"13","size_leaf_vector":"1"}},{"base_weights":[4.6302288E-4,-7.626133E-2,3.0979909E-2,-8.0569565E-2,4.9973787E-3,1.4265205E-2,8.1160575E-2,-5.041118E-3,-2.6715805E-3,1.2263295E-3,-6.896591E-4,-3.8524051E-3,4.621428E-3],"categories":[],"categories_nodes":[],"categories_segments":[],"categories_sizes":[],"default_left":[0,0,0,0,0,0,0,0,0,0,0,0,0],"id":30,"left_children":[1,3,5,7,-1,9,11,-1,-1,-1,-1,-1,-1],"loss_changes":[8.803831E-1,8.928186E-2,2.2446734E-1,5.2322924E-2,0E0,5.878562E-2,1.2656185E-1,0E0,0E0,0E0,0E0,0E0,0E0],"parents":[2147483647,0,0,1,1,2,2,3,3,5,5,6,6],"right_children":[2,4,6,8,-1,10,12,-1,-1,-1,-1,-1,-1],"split_conditions":[8.148083E-1,6.83035E-1,5.79036E-1,6.180098E-1,4.9973787E-3,9.4711566E-1,8.4941655E-1,-5.041118E-3,-2.6715805E-3,1.2263295E-3,-6.896591E-4,-3.8524051E-3,4.621428E-3],"split_indices":[2,0,1,2,0,2,2,0,0,0,0,0,0],"split_type":[0,0,0,0,0,0,0,0,0,0,0,0,0],"sum_hessian":[3.74E2,1.06E2,2.68E2,1.04E2,2E0,2.02E2,6.6E1,5.8E1,4.6E1,1.48E2,5.4E1,4E0,6.2E1],"tree_param":{"num_deleted":"0","num_feature":"3","num_nodes":"13","size_leaf_vector":"1"}},{"base_weights":[-1.1280205E-3,-8.9472435E-2,1.9909944E-2,-5.3864233E-2,-1.0418636E-1,-7.386259E-3,4.7080137E-2,-5.560733E-3,-2.4778707E-4,-5.313064E-3,4.0850788E-5,-1.8826846E-3,1.4917001E-5,1.8807102E-3,6.7407214E-3],"categories":[],"categories_nodes":[],"categories_segments":[],"categories_sizes":[],"default_left":[0,0,0,0,0,0,0,0,0,0,0,0,0,0,0],"id":31,"left_children":[1,3,5,7,9,11,13,-1,-1,-1,-1,-1,-1,-1,-1],"loss_changes":[7.247716E-1,3.36833E-2,2.3396534E-1,6.6767E-2,1.1416197E-2,3.676094E-2,1.2614605E-1,0E0,0E0,0E0,0E0,0E0,0E0,0E0,0E0],"parents":[2147483647,0,0,1,1,2,2,3,3,4,4,5,5,6,6],"right_children":[2,4,6,8,10,12,14,-1,-1,-1,-1,-1,-1,-1,-1],"split_conditions":[6.7846805E-1,2.1013269E-1,4.393005E-1,3.4866706E-1,5.9919596E-1,8.060705E-1,9.328212E-1,-5.560733E-3,-2.4778707E-4,-5.313064E-3,4.0850788E-5,-1.8826846E-3,1.4917001E-5,1.8807102E-3,6.7407214E-3],"split_indices":[2,0,1,2,1,2,0,0,0,0,0,0,0,0,0],"split_type":[0,0,0,0,0,0,0,0,0,0,0,0,0,0,0],"sum_hessian":[3.88E2,7.4E1,3.14E2,2.3E1,5.1E1,1.57E2,1.57E2,1E1,1.3E1,5E1,1E0,3.1E1,1.26E2,1.43E2,1.4E1],"tree_param":{"num_deleted":"0","num_feature":"3","num_nodes":"15","size_leaf_vector":"1"}},{"base_weights":[1.2885235E-3,-7.5769E-2,2.442696E-2,-7.935422E-2,6.17252E-3,1.4398224E-2,1.0080705E-1,-4.776217E-3,-2.680494E-3,-4.0434845E-4,1.3875462E-3,3.0743333E-3,6.3611506E-3],"categories":[],"categories_nodes":[],"categories_segments":[],"categories_sizes":[],"default_left":[0,0,0,0,0,0,0,0,0,0,0,0,0],"id":32,"left_children":[1,3,5,7,-1,9,11,-1,-1,-1,-1,-1,-1],"loss_changes":[7.0256615E-1,7.479268E-2,2.3064528E-1,3.2344997E-2,0E0,8.098845E-2,2.8531462E-2,0E0,0E0,0E0,0E0,0E0,0E0],"parents":[2147483647,0,0,1,1,2,2,3,3,5,5,6,6],"right_children":[2,4,6,8,-1,10,12,-1,-1,-1,-1,-1,-1],"split_conditions":[7.521339E-1,5.9919596E-1,6.611659E-1,5.1005524E-1,6.17252E-3,3.8733712E-1,8.513156E-1,-4.776217E-3,-2.680494E-3,-4.0434845E-4,1.3875462E-3,3.0743333E-3,6.3611506E-3],"split_indices":[2,1,1,2,0,1,0,0,0,0,0,0,0],"split_type":[0,0,0,0,0,0,0,0,0,0,0,0,0],"sum_hessian":[3.92E2,9E1,3.02E2,8.9E1,1E0,2.68E2,3.4E1,5.3E1,3.6E1,1E2,1.68E2,1.5E1,1.9E1],"tree_param":{"num_deleted":"0","num_feature":"3","num_nodes":"13","size_leaf_vector":"1"}},{"base_weights":[-2.5380186E-3,-7.398454E-2,1.8441295E-2,-9.351902E-2,-4.284805E-2,8.038017E-3,8.4041074E-2,-4.8362617E-3,-4.4545284E-4,-1.6394429E-3,-4.8322715E-3,6.74566E-4,-3.2105185E-3,-3.2981352E-3,4.478934E-3],"categories":[],"categories_nodes":[],"categories_segments":[],"categories_sizes":[],"default_left":[0,0,0,0,0,0,0,0,0,0,0,0,0,0,0],"id":33,"left_children":[1,3,5,7,9,11,13,-1,-1,-1,-1,-1,-1,-1,-1],"loss_changes":[5.6794816E-1,4.83011E-2,1.9928311E-1,1.32446885E-2,1.5771635E-2,1.0094035E-1,3.9135337E-2,0E0,0E0,0E0,0E0,0E0,0E0,0E0,0E0],"parents":[2147483647,0,0,1,1,2,2,3,3,4,4,5,5,6,6],"right_children":[2,4,6,8,10,12,14,-1,-1,-1,-1,-1,-1,-1,-1],"split_conditions":[7.521339E-1,5.6712407E-1,6.611659E-1,5.0153774E-1,5.0116926E-1,9.9969614E-1,7.4978137E-1,-4.8362617E-3,-4.4545284E-4,-1.6394429E-3,-4.8322715E-3,6.74566E-4,-3.2105185E-3,-3.2981352E-3,4.478934E-3],"split_indices":[2,2,1,1,0,2,0,0,0,0,0,0,0,0,0],"split_type":[0,0,0,0,0,0,0,0,0,0,0,0,0,0,0],"sum_hessian":[3.77E2,8.5E1,2.92E2,5.1E1,3.4E1,2.53E2,3.9E1,4.9E1,2E0,3E1,4E0,2.36E2,1.7E1,1E0,3.8E1],"tree_param":{"num_deleted":"0","num_feature":"3","num_nodes":"15","size_leaf_vector":"1"}},{"base_weights":[-2.7484314E-3,-6.333643E-2,2.2723367E-2,-5.5824637E-2,-1.0345723E-2,3.6174986E-3,8.678006E-2,-3.2307736E-3,4.9264156E-3,4.07326E-4,-2.6240798E-3,5.053706E-3,1.6807644E-3],"categories":[],"categories_nodes":[],"categories_segments":[],"categories_sizes":[],"default_left":[0,0,0,0,0,0,0,0,0,0,0,0,0],"id":34,"left_children":[1,3,5,7,-1,9,11,-1,-1,-1,-1,-1,-1],"loss_changes":[5.6319505E-1,1.049301E-1,3.1421775E-1,1.4748323E-1,0E0,5.0988264E-2,4.1438848E-2,0E0,0E0,0E0,0E0,0E0,0E0],"parents":[2147483647,0,0,1,1,2,2,3,3,5,5,6,6],"right_children":[2,4,6,8,-1,10,12,-1,-1,-1,-1,-1,-1],"split_conditions":[8.3327943E-1,6.4378726E-1,5.79036E-1,5.160781E-1,-1.0345723E-2,1.0022751E0,9.7469753E-1,-3.2307736E-3,4.9264156E-3,4.07326E-4,-2.6240798E-3,5.053706E-3,1.6807644E-3],"split_indices":[2,0,1,1,0,2,2,0,0,0,0,0,0],"split_type":[0,0,0,0,0,0,0,0,0,0,0,0,0],"sum_hessian":[3.63E2,1.07E2,2.56E2,1.03E2,4E0,1.98E2,5.8E1,9.8E1,5E0,1.84E2,1.4E1,4.5E1,1.3E1],"tree_param":{"num_deleted":"0","num_feature":"3","num_nodes":"13","size_leaf_vector":"1"}},{"base_weights":[3.7112602E-4,-5.0293427E-2,2.4118684E-2,-7.72233E-2,-2.2076493E-2,8.661212E-3,7.673797E-2,-2.0238385E-3,-4.525045E-3,-4.6493142E-4,-4.672561E-3,9.363734E-4,-1.3612544E-3,-1.7257236E-3,4.1716914E-3],"categories":[],"categories_nodes":[],"categories_segments":[],"categories_sizes":[],"default_left":[0,0,0,0,0,0,0,0,0,0,0,0,0,0,0],"id":35,"left_children":[1,3,5,7,9,11,13,-1,-1,-1,-1,-1,-1,-1,-1],"loss_changes":[4.5239782E-1,8.948064E-2,2.0755583E-1,2.6099056E-2,5.3852037E-2,7.239675E-2,4.6085596E-2,0E0,0E0,0E0,0E0,0E0,0E0,0E0,0E0],"parents":[2147483647,0,0,1,1,2,2,3,3,4,4,5,5,6,6],"right_children":[2,4,6,8,10,12,14,-1,-1,-1,-1,-1,-1,-1,-1],"split_conditions":[8.3327943E-1,5.684604E-1,5.9141254E-1,2.1013269E-1,5.526586E-1,9.647215E-1,8.4941655E-1,-2.0238385E-3,-4.525045E-3,-4.6493142E-4,-4.672561E-3,9.363734E-4,-1.3612544E-3,-1.7257236E-3,4.1716914E-3],"split_indices":[2,2,1,0,1,2,2,0,0,0,0,0,0,0,0],"split_type":[0,0,0,0,0,0,0,0,0,0,0,0,0,0,0],"sum_hessian":[3.74E2,1.19E2,2.55E2,6E1,5.9E1,1.98E2,5.7E1,1.7E1,4.3E1,5.1E1,8E0,1.55E2,4.3E1,3E0,5.4E1],"tree_param":{"num_deleted":"0","num_feature":"3","num_nodes":"15","size_leaf_vector":"1"}},{"base_weights":[-6.8475027E-4,-5.6964543E-2,1.8530367E-2,-4.1867243E-3,-3.3105616E-2,-1.9323654E-3,4.7126517E-2,-1.1480396E-3,-5.5218707E-3,9.093182E-5,-3.9058737E-3,-2.1780485E-3,2.8295638E-3],"categories":[],"categories_nodes":[],"categories_segments":[],"categories_sizes":[],"default_left":[0,0,0,0,0,0,0,0,0,0,0,0,0],"id":36,"left_children":[1,3,5,-1,7,9,11,-1,-1,-1,-1,-1,-1],"loss_changes":[4.2064762E-1,6.0459435E-2,1.6978611E-1,0E0,3.9828222E-2,4.872305E-2,1.0632369E-1,0E0,0E0,0E0,0E0,0E0,0E0],"parents":[2147483647,0,0,1,1,2,2,4,4,5,5,6,6],"right_children":[2,4,6,-1,8,10,12,-1,-1,-1,-1,-1,-1],"split_conditions":[7.784014E-1,4.5504135E-1,5.10947E-1,-4.1867243E-3,7.631877E-1,1.0079012E0,8.526856E-1,-1.1480396E-3,-5.5218707E-3,9.093182E-5,-3.9058737E-3,-2.1780485E-3,2.8295638E-3],"split_indices":[2,2,1,0,2,2,2,0,0,0,0,0,0],"split_type":[0,0,0,0,0,0,0,0,0,0,0,0,0],"sum_hessian":[3.87E2,9.8E1,2.89E2,4.5E1,5.3E1,1.69E2,1.2E2,4.8E1,5E0,1.62E2,7E0,1.1E1,1.09E2],"tree_param":{"num_deleted":"0","num_feature":"3","num_nodes":"13","size_leaf_vector":"1"}},{"base_weights":[-2.4854601E-3,-4.659232E-2,1.7648794E-2,-3.9207307E-3,-3.088913E-2,2.3863455E-3,5.4485533E-2,-5.6984224E-3,-1.1415326E-3,4.1914848E-4,-2.9036505E-3,3.3444774E-3,-5.862871E-4],"categories":[],"categories_nodes":[],"categories_segments":[],"categories_sizes":[],"default_left":[0,0,0,0,0,0,0,0,0,0,0,0,0],"id":37,"left_children":[1,3,5,-1,7,9,11,-1,-1,-1,-1,-1,-1],"loss_changes":[3.4006074E-1,5.7543218E-2,1.4773354E-1,0E0,5.229646E-2,6.828405E-2,6.402336E-2,0E0,0E0,0E0,0E0,0E0,0E0],"parents":[2147483647,0,0,1,1,2,2,4,4,5,5,6,6],"right_children":[2,4,6,-1,8,10,12,-1,-1,-1,-1,-1,-1],"split_conditions":[8.3327943E-1,4.2326957E-1,5.5769265E-1,-3.9207307E-3,1.2456036E-1,6.8171155E-1,9.780409E-1,-5.6984224E-3,-1.1415326E-3,4.1914848E-4,-2.9036505E-3,3.3444774E-3,-5.862871E-4],"split_indices":[2,2,1,0,1,0,2,0,0,0,0,0,0],"split_type":[0,0,0,0,0,0,0,0,0,0,0,0,0],"sum_hessian":[3.81E2,1.19E2,2.62E2,3.8E1,8.1E1,1.86E2,7.6E1,6E0,7.5E1,1.7E2,1.6E1,6.4E1,1.2E1],"tree_param":{"num_deleted":"0","num_feature":"3","num_nodes":"13","size_leaf_vector":"1"}},{"base_weights":[1.7522253E-3,-6.746444E-2,1.6547764E-2,-3.9193403E-2,-7.6119624E-2,-4.1906536E-3,3.580333E-2,-4.1689263E-3,2.2462748E-4,-3.5496138E-3,-6.7246556E-3,-1.4757192E-3,2.784633E-4,1.4976434E-3,5.0952337E-3],"categories":[],"categories_nodes":[],"categories_segments":[],"categories_sizes":[],"default_left":[0,0,0,0,0,0,0,0,0,0,0,0,0,0,0],"id":38,"left_children":[1,3,5,7,9,11,13,-1,-1,-1,-1,-1,-1,-1,-1],"loss_changes":[3.9539406E-1,1.3655603E-2,1.2713698E-1,3.5119426E-2,5.7163835E-3,3.8226634E-2,6.075704E-2,0E0,0E0,0E0,0E0,0E0,0E0,0E0,0E0],"parents":[2147483647,0,0,1,1,2,2,3,3,4,4,5,5,6,6],"right_children":[2,4,6,8,10,12,14,-1,-1,-1,-1,-1,-1,-1,-1],"split_conditions":[6.907801E-1,2.1013269E-1,4.393005E-1,3.406852E-1,5.217498E-1,2.6503995E-1,9.1817653E-1,-4.1689263E-3,2.2462748E-4,-3.5496138E-3,-6.7246556E-3,-1.4757192E-3,2.784633E-4,1.4976434E-3,5.0952337E-3],"split_indices":[2,0,1,2,0,0,0,0,0,0,0,0,0,0,0],"split_type":[0,0,0,0,0,0,0,0,0,0,0,0,0,0,0],"sum_hessian":[3.84E2,6.7E1,3.17E2,1.7E1,5E1,1.53E2,1.64E2,8E0,9E0,4.8E1,2E0,4.2E1,1.11E2,1.52E2,1.2E1],"tree_param":{"num_deleted":"0","num_feature":"3","num_nodes":"15","size_leaf_vector":"1"}},{"base_weights":[2.328629E-3,-5.7812393E-2,1.7072877E-2,-6.9620855E-2,-3.545944E-2,9.490004E-3,7.107625E-2,-9.426475E-6,-3.5516997E-3,2.6941422E-4,-2.8620919E-3,-2.2915343E-4,9.884526E-4,8.832553E-4,4.3255384E-3],"categories":[],"categories_nodes":[],"categories_segments":[],"categories_sizes":[],"default_left":[0,0,0,0,0,0,0,0,0,0,0,0,0,0,0],"id":39,"left_children":[1,3,5,7,9,11,13,-1,-1,-1,-1,-1,-1,-1,-1],"loss_changes":[3.51247E-1,1.8119693E-2,1.2954673E-1,4.8924834E-3,2.6111517E-2,4.0594786E-2,3.0622408E-2,0E0,0E0,0E0,0E0,0E0,0E0,0E0,0E0],"parents":[2147483647,0,0,1,1,2,2,3,3,4,4,5,5,6,6],"right_children":[2,4,6,8,10,12,14,-1,-1,-1,-1,-1,-1,-1,-1],"split_conditions":[6.9659495E-1,3.3195236E-1,8.081043E-1,2.0362863E-2,2.1013269E-1,4.6657294E-1,6.5739733E-1,-9.426475E-6,-3.5516997E-3,2.6941422E-4,-2.8620919E-3,-2.2915343E-4,9.884526E-4,8.832553E-4,4.3255384E-3],"split_indices":[2,1,0,0,0,0,1,0,0,0,0,0,0,0,0],"split_type":[0,0,0,0,0,0,0,0,0,0,0,0,0,0,0],"sum_hessian":[3.94E2,7.7E1,3.17E2,4.9E1,2.8E1,2.79E2,3.8E1,1E0,4.8E1,1E1,1.8E1,1.18E2,1.61E2,9E0,2.9E1],"tree_param":{"num_deleted":"0","num_feature":"3","num_nodes":"15","size_leaf_vector":"1"}},{"base_weights":[-1.3962097E-3,-4.437677E-2,1.6843256E-2,-4.9121227E-2,9.600392E-2,3.7611513E-3,4.688508E-2,-2.2043767E-3,-7.2502303E-3,1.0415055E-4,6.3308277E-3,2.6584945E-3,-2.9747162E-5,-3.884056E-3,2.7231658E-3],"categories":[],"categories_nodes":[],"categories_segments":[],"categories_sizes":[],"default_left":[0,0,0,0,0,0,0,0,0,0,0,0,0,0,0],"id":40,"left_children":[1,3,5,7,9,11,13,-1,-1,-1,-1,-1,-1,-1,-1],"loss_changes":[2.9472587E-1,7.931124E-2,1.0357838E-1,4.6215713E-2,1.1236917E-2,3.9849028E-2,7.9750136E-2,0E0,0E0,0E0,0E0,0E0,0E0,0E0,0E0],"parents":[2147483647,0,0,1,1,2,2,3,3,4,4,5,5,6,6],"right_children":[2,4,6,8,10,12,14,-1,-1,-1,-1,-1,-1,-1,-1],"split_conditions":[8.1915694E-1,6.243475E-1,5.526586E-1,8.1367284E-1,2.6844385E-1,8.5190654E-1,8.4941655E-1,-2.2043767E-3,-7.2502303E-3,1.0415055E-4,6.3308277E-3,2.6584945E-3,-2.9747162E-5,-3.884056E-3,2.7231658E-3],"split_indices":[2,1,1,2,0,2,2,0,0,0,0,0,0,0,0],"split_type":[0,0,0,0,0,0,0,0,0,0,0,0,0,0,0],"sum_hessian":[3.74E2,1.11E2,2.63E2,1.08E2,3E0,1.84E2,7.9E1,1.04E2,4E0,1E0,2E0,1.4E1,1.7E2,4E0,7.5E1],"tree_param":{"num_deleted":"0","num_feature":"3","num_nodes":"15","size_leaf_vector":"1"}},{"base_weights":[-1.3993597E-3,-5.9188787E-2,1.1747143E-2,-3.5708632E-2,-6.8617314E-2,-1.2029409E-2,2.4372032E-2,-3.0097538E-3,2.185107E-3,-3.183251E-3,-6.3316184E-3,-2.414746E-3,-1.05739164E-4,9.972345E-4,4.496456E-3],"categories":[],"categories_nodes":[],"categories_segments":[],"categories_sizes":[],"default_left":[0,0,0,0,0,0,0,0,0,0,0,0,0,0,0],"id":41,"left_children":[1,3,5,7,9,11,13,-1,-1,-1,-1,-1,-1,-1,-1],"loss_changes":[2.9926875E-1,1.3710767E-2,9.6649796E-2,4.7353864E-2,6.5906346E-3,4.016848E-2,5.9157595E-2,0E0,0E0,0E0,0E0,0E0,0E0,0E0,0E0],"parents":[2147483647,0,0,1,1,2,2,3,3,4,4,5,5,6,6],"right_children":[2,4,6,8,10,12,14,-1,-1,-1,-1,-1,-1,-1,-1],"split_conditions":[6.9659495E-1,2.1013269E-1,4.2580834E-1,1.7812465E-1,5.422168E-1,8.060705E-1,9.328212E-1,-3.0097538E-3,2.185107E-3,-3.183251E-3,-6.3316184E-3,-2.414746E-3,-1.05739164E-4,9.972345E-4,4.496456E-3],"split_indices":[2,0,0,0,0,2,0,0,0,0,0,0,0,0,0],"split_type":[0,0,0,0,0,0,0,0,0,0,0,0,0,0,0],"sum_hessian":[3.92E2,7.2E1,3.2E2,2.2E1,5E1,1.11E2,2.09E2,1.7E1,5E0,4.8E1,2E0,2.3E1,8.8E1,1.97E2,1.2E1],"tree_param":{"num_deleted":"0","num_feature":"3","num_nodes":"15","size_leaf_vector":"1"}},{"base_weights":[-3.7536726E-3,-3.848935E-2,1.245301E-2,-3.1362187E-2,-1.2607396E-1,6.89881E-3,9.33999E-2,-2.0891742E-3,2.7210324E-3,-1.0295169E-3,-1.0317139E-2,5.016712E-4,-1.8327021E-3,5.1868963E-3,2.85786E-3],"categories":[],"categories_nodes":[],"categories_segments":[],"categories_sizes":[],"default_left":[0,0,0,0,0,0,0,0,0,0,0,0,0,0,0],"id":42,"left_children":[1,3,5,7,9,11,13,-1,-1,-1,-1,-1,-1,-1,-1],"loss_changes":[2.194669E-1,7.345052E-2,1.1894798E-1,1.05974205E-1,7.195476E-2,3.4498107E-2,4.401654E-4,0E0,0E0,0E0,0E0,0E0,0E0,0E0,0E0],"parents":[2147483647,0,0,1,1,2,2,3,3,4,4,5,5,6,6],"right_children":[2,4,6,8,10,12,14,-1,-1,-1,-1,-1,-1,-1,-1],"split_conditions":[8.365317E-1,5.743759E-1,9.1817653E-1,4.568123E-1,8.130958E-1,9.966447E-1,8.146847E-1,-2.0891742E-3,2.7210324E-3,-1.0295169E-3,-1.0317139E-2,5.016712E-4,-1.8327021E-3,5.1868963E-3,2.85786E-3],"split_indices":[2,1,0,1,2,2,1,0,0,0,0,0,0,0,0],"split_type":[0,0,0,0,0,0,0,0,0,0,0,0,0,0,0],"sum_hessian":[3.88E2,1.23E2,2.65E2,1.15E2,8E0,2.49E2,1.6E1,1.03E2,1.2E1,4E0,4E0,2.33E2,1.6E1,1.1E1,5E0],"tree_param":{"num_deleted":"0","num_feature":"3","num_nodes":"15","size_leaf_vector":"1"}},{"base_weights":[-1.2444773E-3,-3.7922647E-2,1.561246E-2,-4.2176746E-2,9.49269E-2,6.1796834E-3,4.679484E-2,-1.846976E-3,-7.552765E-3,2.0686611E-4,6.190549E-3,6.3752866E-4,-2.6797925E-3,-5.8414876E-3,2.7225686E-3],"categories":[],"categories_nodes":[],"categories_segments":[],"categories_sizes":[],"default_left":[0,0,0,0,0,0,0,0,0,0,0,0,0,0,0],"id":43,"left_children":[1,3,5,7,9,11,13,-1,-1,-1,-1,-1,-1,-1,-1],"loss_changes":[2.3368423E-1,7.1257174E-2,7.589216E-2,6.05658E-2,9.977251E-3,7.9239056E-2,8.1529364E-2,0E0,0E0,0E0,0E0,0E0,0E0,0E0,0E0],"parents":[2147483647,0,0,1,1,2,2,3,3,4,4,5,5,6,6],"right_children":[2,4,6,8,10,12,14,-1,-1,-1,-1,-1,-1,-1,-1],"split_conditions":[8.1915694E-1,6.243475E-1,5.9141254E-1,5.526586E-1,2.6844385E-1,7.0081115E-1,8.3840305E-1,-1.846976E-3,-7.552765E-3,2.0686611E-4,6.190549E-3,6.3752866E-4,-2.6797925E-3,-5.8414876E-3,2.7225686E-3],"split_indices":[2,1,1,1,0,0,2,0,0,0,0,0,0,0,0],"split_type":[0,0,0,0,0,0,0,0,0,0,0,0,0,0,0],"sum_hessian":[3.76E2,1.18E2,2.58E2,1.15E2,3E0,1.99E2,5.9E1,1.11E2,4E0,1E0,2E0,1.8E2,1.9E1,2E0,5.7E1],"tree_param":{"num_deleted":"0","num_feature":"3","num_nodes":"15","size_leaf_vector":"1"}},{"base_weights":[1.190243E-3,-5.2902542E-2,1.2308416E-2,-4.9013317E-2,-5.9119235E-3,5.2405046E-3,6.991362E-2,-2.8897235E-3,-1.0668169E-3,3.934478E-4,-5.9585064E-3,3.9203754E-3,1.6344011E-4],"categories":[],"categories_nodes":[],"categories_segments":[],"categories_sizes":[],"default_left":[0,0,0,0,0,0,0,0,0,0,0,0,0],"id":44,"left_children":[1,3,5,7,-1,9,11,-1,-1,-1,-1,-1,-1],"loss_changes":[2.3279655E-1,1.0975748E-2,1.303283E-1,1.4321163E-2,0E0,9.478882E-2,1.9556269E-2,0E0,0E0,0E0,0E0,0E0,0E0],"parents":[2147483647,0,0,1,1,2,2,3,3,5,5,6,6],"right_children":[2,4,6,8,-1,10,12,-1,-1,-1,-1,-1,-1],"split_conditions":[6.7846805E-1,5.217498E-1,6.5739733E-1,5.1005524E-1,-5.9119235E-3,6.4817244E-1,9.8194236E-1,-2.8897235E-3,-1.0668169E-3,3.934478E-4,-5.9585064E-3,3.9203754E-3,1.6344011E-4],"split_indices":[2,0,1,2,0,1,2,0,0,0,0,0,0],"split_type":[0,0,0,0,0,0,0,0,0,0,0,0,0],"sum_hessian":[3.85E2,6.5E1,3.2E2,6.3E1,2E0,2.86E2,3.4E1,4.7E1,1.6E1,2.81E2,5E0,3E1,4E0],"tree_param":{"num_deleted":"0","num_feature":"3","num_nodes":"13","size_leaf_vector":"1"}},{"base_weights":[3.495366E-5,-1.6356677E-2,3.0648476E-2,-4.731787E-2,6.303787E-4,1.3365024E-1,2.486647E-2,-2.0813793E-3,-5.0219917E-3,2.9299513E-4,-4.050662E-3,-2.3113341E-4,7.873309E-3,-5.3156037E-3,1.7169876E-3],"categories":[],"categories_nodes":[],"categories_segments":[],"categories_sizes":[],"default_left":[0,0,0,0,0,0,0,0,0,0,0,0,0,0,0],"id":45,"left_children":[1,3,5,7,9,11,13,-1,-1,-1,-1,-1,-1,-1,-1],"loss_changes":[1.9570366E-1,1.3361846E-1,7.767233E-2,2.3024052E-2,7.092267E-2,2.37796E-2,1.6520062E-1,0E0,0E0,0E0,0E0,0E0,0E0,0E0,0E0],"parents":[2147483647,0,0,1,1,2,2,3,3,4,4,5,5,6,6],"right_children":[2,4,6,8,10,12,14,-1,-1,-1,-1,-1,-1,-1,-1],"split_conditions":[4.9297222E-1,8.060705E-1,8.0562204E-1,7.631877E-1,1.0022751E0,5.29707E-1,8.526856E-1,-2.0813793E-3,-5.0219917E-3,2.9299513E-4,-4.050662E-3,-2.3113341E-4,7.873309E-3,-5.3156037E-3,1.7169876E-3],"split_indices":[1,2,2,2,2,2,2,0,0,0,0,0,0,0,0],"split_type":[0,0,0,0,0,0,0,0,0,0,0,0,0,0,0],"sum_hessian":[3.88E2,2.53E2,1.35E2,8.9E1,1.64E2,6E0,1.29E2,8.2E1,7E0,1.55E2,9E0,1E0,5E0,8E0,1.21E2],"tree_param":{"num_deleted":"0","num_feature":"3","num_nodes":"15","size_leaf_vector":"1"}},{"base_weights":[1.9747822E-3,-4.8405044E-2,1.2853217E-2,-4.362644E-2,-5.09008E-3,-6.545421E-3,2.5555111E-2,-2.5799647E-3,-1.7243251E-4,-9.830519E-5,-5.0046872E-3,5.5457E-3,1.1137904E-3],"categories":[],"categories_nodes":[],"categories_segments":[],"categories_sizes":[],"default_left":[0,0,0,0,0,0,0,0,0,0,0,0,0],"id":46,"left_children":[1,3,5,7,-1,9,11,-1,-1,-1,-1,-1,-1],"loss_changes":[2.1600723E-1,1.34200305E-2,8.000068E-2,2.0963952E-2,0E0,5.5065192E-2,5.2393153E-2,0E0,0E0,0E0,0E0,0E0,0E0],"parents":[2147483647,0,0,1,1,2,2,3,3,5,5,6,6],"right_children":[2,4,6,8,-1,10,12,-1,-1,-1,-1,-1,-1],"split_conditions":[6.7846805E-1,4.5981172E-1,4.0303162E-1,3.7056452E-1,-5.09008E-3,1.0022751E0,3.0504176E-1,-2.5799647E-3,-1.7243251E-4,-9.830519E-5,-5.0046872E-3,5.5457E-3,1.1137904E-3],"split_indices":[2,0,1,1,0,2,0,0,0,0,0,0,0],"split_type":[0,0,0,0,0,0,0,0,0,0,0,0,0],"sum_hessian":[3.92E2,6.9E1,3.23E2,6.5E1,4E0,1.28E2,1.95E2,5.4E1,1.1E1,1.23E2,5E0,6E0,1.89E2],"tree_param":{"num_deleted":"0","num_feature":"3","num_nodes":"13","size_leaf_vector":"1"}},{"base_weights":[-2.9191799E-3,-9.34925E-3,5.907662E-2,-4.979673E-2,-1.6256126E-3,7.55817E-2,-6.07574E-3,-2.7349968E-3,-7.3829066E-4,9.850898E-5,-2.3376225E-3,-1.966305E-3,4.0647034E-3,-1.1759141E-3,2.9005513E-3],"categories":[],"categories_nodes":[],"categories_segments":[],"categories_sizes":[],"default_left":[0,0,0,0,0,0,0,0,0,0,0,0,0,0,0],"id":47,"left_children":[1,3,5,7,9,11,13,-1,-1,-1,-1,-1,-1,-1,-1],"loss_changes":[1.4844678E-1,1.0519841E-1,3.809628E-2,8.467555E-3,4.617586E-2,2.1576047E-2,1.0307008E-2,0E0,0E0,0E0,0E0,0E0,0E0,0E0,0E0],"parents":[2147483647,0,0,1,1,2,2,3,3,4,4,5,5,6,6],"right_children":[2,4,6,8,10,12,14,-1,-1,-1,-1,-1,-1,-1,-1],"split_conditions":[8.081043E-1,5.1005524E-1,9.8194236E-1,3.7056452E-1,9.966447E-1,5.212845E-1,9.1817653E-1,-2.7349968E-3,-7.3829066E-4,9.850898E-5,-2.3376225E-3,-1.966305E-3,4.0647034E-3,-1.1759141E-3,2.9005513E-3],"split_indices":[0,2,2,1,2,1,0,0,0,0,0,0,0,0,0],"split_type":[0,0,0,0,0,0,0,0,0,0,0,0,0,0,0],"sum_hessian":[3.7E2,3.36E2,3.4E1,5.3E1,2.83E2,2.7E1,7E0,4.6E1,7E0,2.63E2,2E1,1E0,2.6E1,6E0,1E0],"tree_param":{"num_deleted":"0","num_feature":"3","num_nodes":"15","size_leaf_vector":"1"}},{"base_weights":[1.7746403E-3,-3.8157396E-2,1.489295E-2,-4.160315E-2,8.023164E-2,2.4838217E-3,3.626027E-2,-1.8236203E-3,-4.0014014E-3,3.0248388E-4,5.714889E-3,-5.9152003E-3,2.2415766E-4,2.9522635E-3,3.4431624E-4],"categories":[],"categories_nodes":[],"categories_segments":[],"categories_sizes":[],"default_left":[0,0,0,0,0,0,0,0,0,0,0,0,0,0,0],"id":48,"left_children":[1,3,5,7,9,11,13,-1,-1,-1,-1,-1,-1,-1,-1],"loss_changes":[1.9910394E-1,4.168424E-2,7.574279E-2,1.5218839E-2,6.8898145E-3,4.448245E-2,6.986837E-2,0E0,0E0,0E0,0E0,0E0,0E0,0E0,0E0],"parents":[2147483647,0,0,1,1,2,2,3,3,4,4,5,5,6,6],"right_children":[2,4,6,8,10,12,14,-1,-1,-1,-1,-1,-1,-1,-1],"split_conditions":[7.521339E-1,5.9919596E-1,5.1999587E-1,4.75251E-1,2.6844385E-1,1.2456036E-1,9.360507E-1,-1.8236203E-3,-4.0014014E-3,3.0248388E-4,5.714889E-3,-5.9152003E-3,2.2415766E-4,2.9522635E-3,3.4431624E-4],"split_indices":[2,1,1,0,0,1,2,0,0,0,0,0,0,0,0],"split_type":[0,0,0,0,0,0,0,0,0,0,0,0,0,0,0],"sum_hessian":[3.78E2,9.3E1,2.85E2,9.1E1,2E0,1.81E2,1.04E2,8.2E1,9E0,1E0,1E0,2E0,1.79E2,5.8E1,4.6E1],"tree_param":{"num_deleted":"0","num_feature":"3","num_nodes":"15","size_leaf_vector":"1"}},{"base_weights":[-2.6430108E-3,-3.1167818E-2,9.321956E-3,-2.3881217E-2,-1.391371E-1,5.3181574E-3,4.434043E-3,-1.7192949E-3,2.7764402E-3,-2.6930397E-4,-9.578015E-3,9.528626E-4,-2.1311853E-4],"categories":[],"categories_nodes":[],"categories_segments":[],"categories_sizes":[],"default_left":[0,0,0,0,0,0,0,0,0,0,0,0,0],"id":49,"left_children":[1,3,5,7,9,11,-1,-1,-1,-1,-1,-1,-1],"loss_changes":[1.3169043E-1,8.636436E-2,8.595287E-2,9.2000484E-2,4.8049822E-2,3.4304455E-2,0E0,0E0,0E0,0E0,0E0,0E0,0E0],"parents":[2147483647,0,0,1,1,2,2,3,3,4,4,5,5],"right_children":[2,4,6,8,10,12,-1,-1,-1,-1,-1,-1,-1],"split_conditions":[8.3327943E-1,5.743759E-1,9.328212E-1,4.584855E-1,8.130958E-1,9.1225606E-1,4.434043E-3,-1.7192949E-3,2.7764402E-3,-2.6930397E-4,-9.578015E-3,9.528626E-4,-2.1311853E-4],"split_indices":[2,1,0,1,2,2,0,0,0,0,0,0,0],"split_type":[0,0,0,0,0,0,0,0,0,0,0,0,0],"sum_hessian":[3.84E2,1.13E2,2.71E2,1.07E2,6E0,2.59E2,1.2E1,9.5E1,1.2E1,2E0,4E0,1.06E2,1.53E2],"tree_param":{"num_deleted":"0","num_feature":"3","num_nodes":"13","size_leaf_vector":"1"}},{"base_weights":[-1.7094142E-3,-3.4696393E-2,8.958799E-3,-3.7936915E-2,7.840538E-2,5.4425094E-3,7.0373476E-2,-2.2418806E-3,-1.1233267E-3,3.0165465E-4,5.578749E-3,-4.2272727E-3,3.3565762E-4,4.216473E-3,2.2938163E-3],"categories":[],"categories_nodes":[],"categories_segments":[],"categories_sizes":[],"default_left":[0,0,0,0,0,0,0,0,0,0,0,0,0,0,0],"id":50,"left_children":[1,3,5,7,9,11,13,-1,-1,-1,-1,-1,-1,-1,-1],"loss_changes":[1.3826038E-1,3.815928E-2,6.375468E-2,9.027749E-3,6.528536E-3,3.281217E-2,1.6013831E-3,0E0,0E0,0E0,0E0,0E0,0E0,0E0,0E0],"parents":[2147483647,0,0,1,1,2,2,3,3,4,4,5,5,6,6],"right_children":[2,4,6,8,10,12,14,-1,-1,-1,-1,-1,-1,-1,-1],"split_conditions":[7.521339E-1,5.9919596E-1,9.1817653E-1,3.3864322E-1,2.6844385E-1,1.2456036E-1,1.0070858E0,-2.2418806E-3,-1.1233267E-3,3.0165465E-4,5.578749E-3,-4.2272727E-3,3.3565762E-4,4.216473E-3,2.2938163E-3],"split_indices":[2,1,0,1,0,1,0,0,0,0,0,0,0,0,0],"split_type":[0,0,0,0,0,0,0,0,0,0,0,0,0,0,0],"sum_hessian":[3.91E2,9.5E1,2.96E2,9.3E1,2E0,2.81E2,1.5E1,6.3E1,3E1,1E0,1E0,3E0,2.78E2,8E0,7E0],"tree_param":{"num_deleted":"0","num_feature":"3","num_nodes":"15","size_leaf_vector":"1"}},{"base_weights":[-6.9910614E-4,-2.2089345E-2,1.167396E-2,-1.9403705E-2,-7.092323E-3,4.4323388E-3,3.491931E-2,-1.9861853E-3,4.5178458E-5,3.6040784E-4,-6.3569597E-3,4.3988293E-3,1.0463753E-3],"categories":[],"categories_nodes":[],"categories_segments":[],"categories_sizes":[],"default_left":[0,0,0,0,0,0,0,0,0,0,0,0,0],"id":51,"left_children":[1,3,5,7,-1,9,11,-1,-1,-1,-1,-1,-1],"loss_changes":[1.0400571E-1,4.3561563E-2,4.1760396E-2,5.8631316E-2,0E0,7.0673205E-2,4.195852E-2,0E0,0E0,0E0,0E0,0E0,0E0],"parents":[2147483647,0,0,1,1,2,2,3,3,5,5,6,6],"right_children":[2,4,6,8,-1,10,12,-1,-1,-1,-1,-1,-1],"split_conditions":[3.492342E-1,9.9969614E-1,7.4978137E-1,8.060705E-1,-7.092323E-3,6.4876926E-1,8.8447034E-1,-1.9861853E-3,4.5178458E-5,3.6040784E-4,-6.3569597E-3,4.3988293E-3,1.0463753E-3],"split_indices":[1,2,0,2,0,1,2,0,0,0,0,0,0],"split_type":[0,0,0,0,0,0,0,0,0,0,0,0,0],"sum_hessian":[3.91E2,1.43E2,2.48E2,1.41E2,2E0,1.9E2,5.8E1,7E1,7.1E1,1.87E2,3E0,1.1E1,4.7E1],"tree_param":{"num_deleted":"0","num_feature":"3","num_nodes":"13","size_leaf_vector":"1"}},{"base_weights":[-2.0390528E-3,-3.6101248E-2,5.1605385E-3,-3.2237906E-2,-5.453053E-3,-4.5318544E-4,3.4317434E-2,-2.1517565E-3,-5.774814E-4,8.346651E-5,-5.685244E-3,5.324596E-3,9.387266E-4],"categories":[],"categories_nodes":[],"categories_segments":[],"categories_sizes":[],"default_left":[0,0,0,0,0,0,0,0,0,0,0,0,0],"id":52,"left_children":[1,3,5,7,-1,9,11,-1,-1,-1,-1,-1,-1],"loss_changes":[9.558229E-2,1.5651174E-2,5.2720115E-2,1.4245786E-2,0E0,6.533238E-2,5.6334324E-2,0E0,0E0,0E0,0E0,0E0,0E0],"parents":[2147483647,0,0,1,1,2,2,3,3,5,5,6,6],"right_children":[2,4,6,8,-1,10,12,-1,-1,-1,-1,-1,-1],"split_conditions":[6.6754717E-1,4.8970088E-1,6.286904E-1,4.2326957E-1,-5.453053E-3,6.231815E-1,6.4817244E-1,-2.1517565E-3,-5.774814E-4,8.346651E-5,-5.685244E-3,5.324596E-3,9.387266E-4],"split_indices":[2,0,1,2,0,1,1,0,0,0,0,0,0],"split_type":[0,0,0,0,0,0,0,0,0,0,0,0,0],"sum_hessian":[3.88E2,6.7E1,3.21E2,6.5E1,2E0,2.7E2,5.1E1,4.2E1,2.3E1,2.66E2,4E0,8E0,4.3E1],"tree_param":{"num_deleted":"0","num_feature":"3","num_nodes":"13","size_leaf_vector":"1"}},{"base_weights":[2.7848568E-4,-2.8001577E-2,9.315487E-3,-3.1077081E-2,7.462259E-2,4.6776966E-3,6.315245E-2,-1.3219711E-3,-4.6185353E-3,2.995398E-4,5.297154E-3,3.9846735E-4,-2.2292482E-3,3.710114E-3,4.2663096E-4],"categories":[],"categories_nodes":[],"categories_segments":[],"categories_sizes":[],"default_left":[0,0,0,0,0,0,0,0,0,0,0,0,0,0,0],"id":53,"left_children":[1,3,5,7,9,11,13,-1,-1,-1,-1,-1,-1,-1,-1],"loss_changes":[9.8143E-2,3.1671807E-2,7.23628E-2,2.342534E-2,5.8140624E-3,4.397513E-2,1.3248272E-2,0E0,0E0,0E0,0E0,0E0,0E0,0E0,0E0],"parents":[2147483647,0,0,1,1,2,2,3,3,4,4,5,5,6,6],"right_children":[2,4,6,8,10,12,14,-1,-1,-1,-1,-1,-1,-1,-1],"split_conditions":[7.784014E-1,5.9919596E-1,8.513156E-1,7.631877E-1,2.6844385E-1,9.966447E-1,9.8194236E-1,-1.3219711E-3,-4.6185353E-3,2.995398E-4,5.297154E-3,3.9846735E-4,-2.2292482E-3,3.710114E-3,4.2663096E-4],"split_indices":[2,1,0,2,0,2,2,0,0,0,0,0,0,0,0],"split_type":[0,0,0,0,0,0,0,0,0,0,0,0,0,0,0],"sum_hessian":[3.82E2,9.2E1,2.9E2,9E1,2E0,2.68E2,2.2E1,8.5E1,5E0,1E0,1E0,2.52E2,1.6E1,1.8E1,4E0],"tree_param":{"num_deleted":"0","num_feature":"3","num_nodes":"15","size_leaf_vector":"1"}},{"base_weights":[-3.8306878E-3,-7.5439275E-3,4.8730455E-2,-3.2548796E-2,-2.2549292E-3,-1.9059858E-3,5.755629E-2,-1.427008E-3,-5.227219E-3,-2.7337692E-5,-3.732613E-3,4.6179835E-3,2.1768236E-3],"categories":[],"categories_nodes":[],"categories_segments":[],"categories_sizes":[],"default_left":[0,0,0,0,0,0,0,0,0,0,0,0,0],"id":54,"left_children":[1,3,5,7,9,-1,11,-1,-1,-1,-1,-1,-1],"loss_changes":[7.68751E-2,4.8462614E-2,2.2123687E-2,1.5486956E-2,3.7554055E-2,0E0,7.689476E-3,0E0,0E0,0E0,0E0,0E0,0E0],"parents":[2147483647,0,0,1,1,2,2,3,3,4,4,6,6],"right_children":[2,4,6,8,10,-1,12,-1,-1,-1,-1,-1,-1],"split_conditions":[8.513156E-1,6.7846805E-1,6.5739733E-1,5.217498E-1,8.307073E-1,-1.9059858E-3,9.117514E-1,-1.427008E-3,-5.227219E-3,-2.7337692E-5,-3.732613E-3,4.6179835E-3,2.1768236E-3],"split_indices":[0,2,1,0,0,0,0,0,0,0,0,0,0],"split_type":[0,0,0,0,0,0,0,0,0,0,0,0,0],"sum_hessian":[3.91E2,3.66E2,2.5E1,6.3E1,3.03E2,2E0,2.3E1,6.1E1,2E0,2.97E2,6E0,5E0,1.8E1],"tree_param":{"num_deleted":"0","num_feature":"3","num_nodes":"13","size_leaf_vector":"1"}},{"base_weights":[-1.2272586E-3,-2.1228394E-2,7.809911E-3,-1.6090937E-2,-1.2129569E-1,-2.0345862E-3,2.850596E-2,-1.1103064E-3,1.8210171E-3,-8.186202E-3,2.27115E-3,1.9040771E-3,-4.0319577E-4,2.0372681E-3,-3.4250607E-4],"categories":[],"categories_nodes":[],"categories_segments":[],"categories_sizes":[],"default_left":[0,0,0,0,0,0,0,0,0,0,0,0,0,0,0],"id":55,"left_children":[1,3,5,7,9,11,13,-1,-1,-1,-1,-1,-1,-1,-1],"loss_changes":[7.319027E-2,6.282375E-2,5.690207E-2,3.9663844E-2,4.9878433E-2,4.6263024E-2,3.9225474E-2,0E0,0E0,0E0,0E0,0E0,0E0,0E0,0E0],"parents":[2147483647,0,0,1,1,2,2,3,3,4,4,5,5,6,6],"right_children":[2,4,6,8,10,12,14,-1,-1,-1,-1,-1,-1,-1,-1],"split_conditions":[8.3327943E-1,6.4378726E-1,5.4495496E-1,4.584855E-1,7.492881E-1,8.6757857E-1,9.647215E-1,-1.1103064E-3,1.8210171E-3,-8.186202E-3,2.27115E-3,1.9040771E-3,-4.0319577E-4,2.0372681E-3,-3.4250607E-4],"split_indices":[2,0,1,1,0,2,2,0,0,0,0,0,0,0,0],"split_type":[0,0,0,0,0,0,0,0,0,0,0,0,0,0,0],"sum_hessian":[4.03E2,1.25E2,2.78E2,1.2E2,5E0,1.89E2,8.9E1,1.08E2,1.2E1,4E0,1E0,2.4E1,1.65E2,6.6E1,2.3E1],"tree_param":{"num_deleted":"0","num_feature":"3","num_nodes":"15","size_leaf_vector":"1"}},{"base_weights":[3.7625658E-3,-7.695775E-3,2.6742328E-2,-3.561098E-2,-2.558883E-3,9.084481E-2,1.403561E-2,-2.5511717E-3,-1.4534188E-3,4.2691823E-5,-1.4379321E-3,5.304361E-3,1.6766861E-4,-2.6764602E-3,1.0938114E-3],"categories":[],"categories_nodes":[],"categories_segments":[],"categories_sizes":[],"default_left":[0,0,0,0,0,0,0,0,0,0,0,0,0,0,0],"id":56,"left_children":[1,3,5,7,9,11,13,-1,-1,-1,-1,-1,-1,-1,-1],"loss_changes":[9.657725E-2,3.504124E-2,9.809787E-2,2.3486614E-3,1.8622342E-2,2.6315853E-2,5.5735245E-2,0E0,0E0,0E0,0E0,0E0,0E0,0E0,0E0],"parents":[2147483647,0,0,1,1,2,2,3,3,4,4,5,5,6,6],"right_children":[2,4,6,8,10,12,14,-1,-1,-1,-1,-1,-1,-1,-1],"split_conditions":[4.9297222E-1,4.2326957E-1,5.505022E-1,1.6495146E-1,9.659856E-1,9.527732E-1,8.526856E-1,-2.5511717E-3,-1.4534188E-3,4.2691823E-5,-1.4379321E-3,5.304361E-3,1.6766861E-4,-2.6764602E-3,1.0938114E-3],"split_indices":[1,2,0,0,2,2,2,0,0,0,0,0,0,0,0],"split_type":[0,0,0,0,0,0,0,0,0,0,0,0,0,0,0],"sum_hessian":[3.65E2,2.44E2,1.21E2,3.7E1,2.07E2,1.9E1,1.02E2,9E0,2.8E1,1.84E2,2.3E1,1.6E1,3E0,1E1,9.2E1],"tree_param":{"num_deleted":"0","num_feature":"3","num_nodes":"15","size_leaf_vector":"1"}},{"base_weights":[-1.6178947E-4,-3.7574563E-2,7.3909806E-3,-3.4144413E-2,-4.8541403E-3,4.2235847E-3,3.5967722E-3,-1.9763664E-3,-2.5522674E-4,3.4639248E-4,-1.6532298E-3],"categories":[],"categories_nodes":[],"categories_segments":[],"categories_sizes":[],"default_left":[0,0,0,0,0,0,0,0,0,0,0],"id":57,"left_children":[1,3,5,7,-1,9,-1,-1,-1,-1,-1],"loss_changes":[1.0934976E-1,9.953104E-3,6.552518E-2,9.646334E-3,0E0,3.1286895E-2,0E0,0E0,0E0,0E0,0E0],"parents":[2147483647,0,0,1,1,2,2,3,3,5,5],"right_children":[2,4,6,8,-1,10,-1,-1,-1,-1,-1],"split_conditions":[6.6754717E-1,5.217498E-1,9.328212E-1,5.6712407E-1,-4.8541403E-3,9.966447E-1,3.5967722E-3,-1.9763664E-3,-2.5522674E-4,3.4639248E-4,-1.6532298E-3],"split_indices":[2,0,0,2,0,2,0,0,0,0,0],"split_type":[0,0,0,0,0,0,0,0,0,0,0],"sum_hessian":[3.85E2,6.4E1,3.21E2,6.2E1,2E0,3.07E2,1.4E1,5.2E1,1E1,2.87E2,2E1],"tree_param":{"num_deleted":"0","num_feature":"3","num_nodes":"11","size_leaf_vector":"1"}},{"base_weights":[-1.9457856E-3,-1.9104252E-2,7.846835E-3,-1.5092432E-2,-7.486356E-3,3.064933E-2,3.8432763E-3,-1.6076936E-3,-2.9688088E-5,1.0225349E-4,4.773655E-3,-1.7317198E-3,5.5385527E-4],"categories":[],"categories_nodes":[],"categories_segments":[],"categories_sizes":[],"default_left":[0,0,0,0,0,0,0,0,0,0,0,0,0],"id":58,"left_children":[1,3,5,7,-1,9,11,-1,-1,-1,-1,-1,-1],"loss_changes":[6.38319E-2,7.005714E-2,2.197466E-2,3.337561E-2,0E0,6.655724E-2,5.800021E-2,0E0,0E0,0E0,0E0,0E0,0E0],"parents":[2147483647,0,0,1,1,2,2,3,3,5,5,6,6],"right_children":[2,4,6,8,-1,10,12,-1,-1,-1,-1,-1,-1],"split_conditions":[3.5362175E-1,9.9969614E-1,3.341492E-1,8.060705E-1,-7.486356E-3,4.5240185E-1,8.526856E-1,-1.6076936E-3,-2.9688088E-5,1.0225349E-4,4.773655E-3,-1.7317198E-3,5.5385527E-4],"split_indices":[1,2,0,2,0,1,2,0,0,0,0,0,0],"split_type":[0,0,0,0,0,0,0,0,0,0,0,0,0],"sum_hessian":[3.78E2,1.37E2,2.41E2,1.34E2,3E0,3.5E1,2.06E2,6.1E1,7.3E1,2.5E1,1E1,3.2E1,1.74E2],"tree_param":{"num_deleted":"0","num_feature":"3","num_nodes":"13","size_leaf_vector":"1"}},{"base_weights":[-1.2491594E-4,-1.5753528E-2,1.3167291E-2,-7.695907E-2,-1.3229708E-2,-2.8814698E-2,1.5584121E-2,-1.2231186E-3,-4.6532643E-3,-5.749653E-4,-4.2381072E-3,1.0969288E-3,-1.7711524E-3,4.66327E-3,5.5379723E-4],"categories":[],"categories_nodes":[],"categories_segments":[],"categories_sizes":[],"default_left":[0,0,0,0,0,0,0,0,0,0,0,0,0,0,0],"id":59,"left_children":[1,3,5,7,9,11,13,-1,-1,-1,-1,-1,-1,-1,-1],"loss_changes":[8.226424E-2,2.7095728E-2,2.216221E-2,3.6420599E-3,2.081054E-2,4.801877E-3,7.0057794E-2,0E0,0E0,0E0,0E0,0E0,0E0,0E0,0E0],"parents":[2147483647,0,0,1,1,2,2,3,3,4,4,5,5,6,6],"right_children":[2,4,6,8,10,12,14,-1,-1,-1,-1,-1,-1,-1,-1],"split_conditions":[4.0117246E-1,1.2456036E-1,6.6583264E-1,4.5504135E-1,1.0079012E0,4.0303162E-1,3.0504176E-1,-1.2231186E-3,-4.6532643E-3,-5.749653E-4,-4.2381072E-3,1.0969288E-3,-1.7711524E-3,4.66327E-3,5.5379723E-4],"split_indices":[1,1,2,2,2,1,0,0,0,0,0,0,0,0,0],"split_type":[0,0,0,0,0,0,0,0,0,0,0,0,0,0,0],"sum_hessian":[3.94E2,1.81E2,2.13E2,6E0,1.75E2,1.1E1,2.02E2,2E0,4E0,1.72E2,3E0,1E0,1E1,1E1,1.92E2],"tree_param":{"num_deleted":"0","num_feature":"3","num_nodes":"15","size_leaf_vector":"1"}},{"base_weights":[-2.3202884E-3,-1.8939208E-2,4.819176E-3,-1.2855018E-2,-1.00989945E-1,-1.57289E-3,2.7750295E-2,-1.0943279E-3,2.1068833E-3,8.736355E-4,-8.778105E-3,5.2874373E-5,-3.1094535E-3,5.0785723E-3,8.0419454E-4],"categories":[],"categories_nodes":[],"categories_segments":[],"categories_sizes":[],"default_left":[0,0,0,0,0,0,0,0,0,0,0,0,0,0,0],"id":60,"left_children":[1,3,5,7,9,11,13,-1,-1,-1,-1,-1,-1,-1,-1],"loss_changes":[4.6602145E-2,5.7608824E-2,4.035239E-2,5.605247E-2,7.373966E-2,3.4505546E-2,5.0039973E-2,0E0,0E0,0E0,0E0,0E0,0E0,0E0,0E0],"parents":[2147483647,0,0,1,1,2,2,3,3,4,4,5,5,6,6],"right_children":[2,4,6,8,10,12,14,-1,-1,-1,-1,-1,-1,-1,-1],"split_conditions":[8.3327943E-1,5.526586E-1,5.9141254E-1,4.608142E-1,8.130958E-1,7.5655055E-1,6.043803E-1,-1.0943279E-3,2.1068833E-3,8.736355E-4,-8.778105E-3,5.2874373E-5,-3.1094535E-3,5.0785723E-3,8.0419454E-4],"split_indices":[2,1,1,0,2,0,1,0,0,0,0,0,0,0,0],"split_type":[0,0,0,0,0,0,0,0,0,0,0,0,0,0,0],"sum_hessian":[3.91E2,1.17E2,2.74E2,1.1E2,7E0,2.15E2,5.9E1,9.5E1,1.5E1,3E0,4E0,2.07E2,8E0,7E0,5.2E1],"tree_param":{"num_deleted":"0","num_feature":"3","num_nodes":"15","size_leaf_vector":"1"}},{"base_weights":[2.0734943E-3,-1.3602937E-2,1.7264409E-2,-1.1026586E-2,-9.163203E-2,1.00347325E-1,1.41454255E-2,-1.220294E-3,3.0366295E-5,-7.505776E-3,8.4449904E-4,2.4940073E-4,6.8746726E-3,-3.5038933E-3,8.3860673E-4],"categories":[],"categories_nodes":[],"categories_segments":[],"categories_sizes":[],"default_left":[0,0,0,0,0,0,0,0,0,0,0,0,0,0,0],"id":61,"left_children":[1,3,5,7,9,11,13,-1,-1,-1,-1,-1,-1,-1,-1],"loss_changes":[9.287104E-2,3.7587427E-2,4.9889125E-2,2.9122034E-2,4.0615927E-2,2.410978E-2,4.365151E-2,0E0,0E0,0E0,0E0,0E0,0E0,0E0,0E0],"parents":[2147483647,0,0,1,1,2,2,3,3,4,4,5,5,6,6],"right_children":[2,4,6,8,10,12,14,-1,-1,-1,-1,-1,-1,-1,-1],"split_conditions":[4.608142E-1,1.0079012E0,4.8047647E-1,8.060705E-1,1.0278182E0,4.6657294E-1,6.907801E-1,-1.220294E-3,3.0366295E-5,-7.505776E-3,8.4449904E-4,2.4940073E-4,6.8746726E-3,-3.5038933E-3,8.3860673E-4],"split_indices":[0,2,0,2,2,0,2,0,0,0,0,0,0,0,0],"split_type":[0,0,0,0,0,0,0,0,0,0,0,0,0,0,0],"sum_hessian":[3.88E2,1.91E2,1.97E2,1.86E2,5E0,6E0,1.91E2,8.6E1,1E2,3E0,2E0,2E0,4E0,5E0,1.86E2],"tree_param":{"num_deleted":"0","num_feature":"3","num_nodes":"15","size_leaf_vector":"1"}},{"base_weights":[1.863662E-3,-1.9778758E-2,1.1871277E-2,-1.4055845E-2,-1.08519815E-1,-6.6136476E-3,2.035932E-2,-9.7117753E-4,6.7864032E-3,-7.083411E-3,2.259265E-3,-1.2864525E-4,-4.187736E-3,2.146617E-3,6.6765014E-4],"categories":[],"categories_nodes":[],"categories_segments":[],"categories_sizes":[],"default_left":[0,0,0,0,0,0,0,0,0,0,0,0,0,0,0],"id":62,"left_children":[1,3,5,7,9,11,13,-1,-1,-1,-1,-1,-1,-1,-1],"loss_changes":[8.080591E-2,5.8401812E-2,4.0144365E-2,9.2683844E-2,4.2066887E-2,2.5032792E-2,2.7103625E-2,0E0,0E0,0E0,0E0,0E0,0E0,0E0,0E0],"parents":[2147483647,0,0,1,1,2,2,3,3,4,4,5,5,6,6],"right_children":[2,4,6,8,10,12,14,-1,-1,-1,-1,-1,-1,-1,-1],"split_conditions":[8.365317E-1,5.526586E-1,3.818272E-1,5.160781E-1,7.492881E-1,1.0022751E0,8.9529777E-1,-9.7117753E-4,6.7864032E-3,-7.083411E-3,2.259265E-3,-1.2864525E-4,-4.187736E-3,2.146617E-3,6.6765014E-4],"split_indices":[2,1,1,1,0,2,2,0,0,0,0,0,0,0,0],"split_type":[0,0,0,0,0,0,0,0,0,0,0,0,0,0,0],"sum_hessian":[3.71E2,1.17E2,2.54E2,1.11E2,6E0,8E1,1.74E2,1.08E2,3E0,5E0,1E0,7.7E1,3E0,4E1,1.34E2],"tree_param":{"num_deleted":"0","num_feature":"3","num_nodes":"15","size_leaf_vector":"1"}},{"base_weights":[1.4291772E-3,-1.3152499E-2,1.1964722E-2,-1.1437597E-2,-8.017537E-2,4.0815946E-2,8.422473E-3,-2.8312132E-3,-4.378678E-4,-6.074816E-3,1.094687E-3,-2.3558196E-3,2.99043E-3,-2.4592532E-3,5.1934016E-4],"categories":[],"categories_nodes":[],"categories_segments":[],"categories_sizes":[],"default_left":[0,0,0,0,0,0,0,0,0,0,0,0,0,0,0],"id":63,"left_children":[1,3,5,7,9,11,13,-1,-1,-1,-1,-1,-1,-1,-1],"loss_changes":[6.1146848E-2,1.827758E-2,2.326401E-2,1.9366348E-2,1.9530378E-2,4.456967E-2,2.3935037E-2,0E0,0E0,0E0,0E0,0E0,0E0,0E0,0E0],"parents":[2147483647,0,0,1,1,2,2,3,3,4,4,5,5,6,6],"right_children":[2,4,6,8,10,12,14,-1,-1,-1,-1,-1,-1,-1,-1],"split_conditions":[3.740746E-1,1.0022751E0,3.0927482E-1,1.2456036E-1,3.6419424E-1,2.933933E-1,6.180098E-1,-2.8312132E-3,-4.378678E-4,-6.074816E-3,1.094687E-3,-2.3558196E-3,2.99043E-3,-2.4592532E-3,5.1934016E-4],"split_indices":[1,2,0,1,0,2,2,0,0,0,0,0,0,0,0],"split_type":[0,0,0,0,0,0,0,0,0,0,0,0,0,0,0],"sum_hessian":[3.96E2,1.66E2,2.3E2,1.63E2,3E0,2.4E1,2.06E2,8E0,1.55E2,2E0,1E0,4E0,2E1,6E0,2E2],"tree_param":{"num_deleted":"0","num_feature":"3","num_nodes":"15","size_leaf_vector":"1"}},{"base_weights":[-1.2283414E-3,-4.0264823E-3,3.8853846E-2,-1.4223964E-3,-6.18785E-2,5.1608115E-2,-1.2261748E-2,-1.8553624E-4,3.2338134E-3,-5.3296066E-3,-1.9204244E-4,1.0396632E-3,3.886566E-3,-4.156826E-3,2.1979883E-3],"categories":[],"categories_nodes":[],"categories_segments":[],"categories_sizes":[],"default_left":[0,0,0,0,0,0,0,0,0,0,0,0,0,0,0],"id":64,"left_children":[1,3,5,7,9,11,13,-1,-1,-1,-1,-1,-1,-1,-1],"loss_changes":[4.4682223E-2,5.595439E-2,1.75833E-2,5.4238193E-2,4.111178E-2,1.5288353E-2,2.7562784E-2,0E0,0E0,0E0,0E0,0E0,0E0,0E0,0E0],"parents":[2147483647,0,0,1,1,2,2,3,3,4,4,5,5,6,6],"right_children":[2,4,6,8,10,12,14,-1,-1,-1,-1,-1,-1,-1,-1],"split_conditions":[6.84952E-1,6.4876926E-1,9.8194236E-1,6.243475E-1,8.438101E-1,9.4339013E-1,7.7236426E-1,-1.8553624E-4,3.2338134E-3,-5.3296066E-3,-1.9204244E-4,1.0396632E-3,3.886566E-3,-4.156826E-3,2.1979883E-3],"split_indices":[1,1,2,1,0,2,1,0,0,0,0,0,0,0,0],"split_type":[0,0,0,0,0,0,0,0,0,0,0,0,0,0,0],"sum_hessian":[3.96E2,3.71E2,2.5E1,3.56E2,1.5E1,2E1,5E0,3.45E2,1.1E1,8E0,7E0,1E1,1E1,2E0,3E0],"tree_param":{"num_deleted":"0","num_feature":"3","num_nodes":"15","size_leaf_vector":"1"}},{"base_weights":[-2.7250595E-4,-2.3096926E-3,3.1536378E-3,-2.4126234E-2,2.201818E-3,-4.2869306E-5,-1.626219E-3,3.6887045E-4,-1.0449985E-3],"categories":[],"categories_nodes":[],"categories_segments":[],"categories_sizes":[],"default_left":[0,0,0,0,0,0,0,0,0],"id":65,"left_children":[1,3,-1,5,7,-1,-1,-1,-1],"loss_changes":[4.9699392E-2,3.676585E-2,0E0,1.2478687E-2,3.7219465E-2,0E0,0E0,0E0,0E0],"parents":[2147483647,0,0,1,1,3,3,4,4],"right_children":[2,4,-1,6,8,-1,-1,-1,-1],"split_conditions":[9.1817653E-1,5.684604E-1,3.1536378E-3,2.1013269E-1,9.648622E-1,-4.2869306E-5,-1.626219E-3,3.6887045E-4,-1.0449985E-3],"split_indices":[0,2,0,0,2,0,0,0,0],"split_type":[0,0,0,0,0,0,0,0,0],"sum_hessian":[3.83E2,3.72E2,1.1E1,6.3E1,3.09E2,1.7E1,4.6E1,2.53E2,5.6E1],"tree_param":{"num_deleted":"0","num_feature":"3","num_nodes":"9","size_leaf_vector":"1"}},{"base_weights":[-2.315317E-3,-4.959518E-3,4.8742205E-2,-2.0143818E-2,6.6811347E-4,-1.1185103E-3,6.347392E-2,-1.114685E-3,4.763614E-3,1.9422513E-4,-1.970467E-3,-1.954794E-4,3.4113396E-3],"categories":[],"categories_nodes":[],"categories_segments":[],"categories_sizes":[],"default_left":[0,0,0,0,0,0,0,0,0,0,0,0,0],"id":66,"left_children":[1,3,5,7,9,-1,11,-1,-1,-1,-1,-1,-1],"loss_changes":[5.2084174E-2,3.128876E-2,2.132447E-2,2.668893E-2,3.4699537E-2,0E0,5.390987E-3,0E0,0E0,0E0,0E0,0E0,0E0],"parents":[2147483647,0,0,1,1,2,2,3,3,4,4,6,6],"right_children":[2,4,6,8,10,-1,12,-1,-1,-1,-1,-1,-1],"split_conditions":[6.9919723E-1,8.0149716E-1,8.9655775E-1,5.9919596E-1,6.4876926E-1,-1.1185103E-3,7.978008E-1,-1.114685E-3,4.763614E-3,1.9422513E-4,-1.970467E-3,-1.954794E-4,3.4113396E-3],"split_indices":[1,2,2,1,1,0,0,0,0,0,0,0,0],"split_type":[0,0,0,0,0,0,0,0,0,0,0,0,0],"sum_hessian":[3.83E2,3.65E2,1.8E1,9.8E1,2.67E2,3E0,1.5E1,9.7E1,1E0,2.48E2,1.9E1,1E0,1.4E1],"tree_param":{"num_deleted":"0","num_feature":"3","num_nodes":"13","size_leaf_vector":"1"}},{"base_weights":[-4.7416004E-4,-5.129259E-3,3.0981187E-2,-3.8092867E-3,-7.4088247E-3,8.9596145E-2,1.5552917E-2,-9.5322396E-4,1.5160559E-4,2.1260253E-3,6.4083845E-3,-5.2942266E-3,1.7963197E-3],"categories":[],"categories_nodes":[],"categories_segments":[],"categories_sizes":[],"default_left":[0,0,0,0,0,0,0,0,0,0,0,0,0],"id":67,"left_children":[1,3,5,7,-1,9,11,-1,-1,-1,-1,-1,-1],"loss_changes":[5.565503E-2,6.1934456E-2,4.291856E-2,3.4394503E-2,0E0,1.2708046E-2,1.02768175E-1,0E0,0E0,0E0,0E0,0E0,0E0],"parents":[2147483647,0,0,1,1,2,2,3,3,5,5,6,6],"right_children":[2,4,6,8,-1,10,12,-1,-1,-1,-1,-1,-1],"split_conditions":[6.243475E-1,6.231815E-1,6.4817244E-1,8.130958E-1,-7.4088247E-3,6.4155704E-1,7.4978137E-1,-9.5322396E-4,1.5160559E-4,2.1260253E-3,6.4083845E-3,-5.2942266E-3,1.7963197E-3],"split_indices":[1,1,1,2,0,1,0,0,0,0,0,0,0],"split_type":[0,0,0,0,0,0,0,0,0,0,0,0,0],"sum_hessian":[3.78E2,3.3E2,4.8E1,3.28E2,2E0,9E0,3.9E1,1.01E2,2.27E2,5E0,4E0,5E0,3.4E1],"tree_param":{"num_deleted":"0","num_feature":"3","num_nodes":"13","size_leaf_vector":"1"}},{"base_weights":[-2.4344723E-3,-1.0330184E-2,9.7651E-3,-2.2238027E-2,-4.0772124E-3,6.4826286E-3,7.2857197E-3,-8.996003E-4,-4.116498E-3,1.7732885E-3,-4.299795E-4,8.9453114E-4,-2.8048438E-4],"categories":[],"categories_nodes":[],"categories_segments":[],"categories_sizes":[],"default_left":[0,0,0,0,0,0,0,0,0,0,0,0,0],"id":68,"left_children":[1,3,5,7,9,-1,11,-1,-1,-1,-1,-1,-1],"loss_changes":[3.6993083E-2,1.7258372E-2,4.3939617E-2,1.8930852E-2,2.784455E-2,0E0,2.0476786E-2,0E0,0E0,0E0,0E0,0E0,0E0],"parents":[2147483647,0,0,1,1,2,2,3,3,4,4,6,6],"right_children":[2,4,6,8,10,-1,12,-1,-1,-1,-1,-1,-1],"split_conditions":[4.6059415E-1,2.8588042E-1,1.6945313E-1,9.6011806E-1,3.3710173E-1,6.4826286E-3,5.822439E-1,-8.996003E-4,-4.116498E-3,1.7732885E-3,-4.299795E-4,8.9453114E-4,-2.8048438E-4],"split_indices":[1,0,0,2,0,0,1,0,0,0,0,0,0],"split_type":[0,0,0,0,0,0,0,0,0,0,0,0,0],"sum_hessian":[3.82E2,2.32E2,1.5E2,7.9E1,1.53E2,2E0,1.48E2,7.5E1,4E0,1.5E1,1.38E2,8.1E1,6.7E1],"tree_param":{"num_deleted":"0","num_feature":"3","num_nodes":"13","size_leaf_vector":"1"}},{"base_weights":[-1.1798019E-3,-6.5652486E-3,2.7475825E-2,-5.171133E-3,-6.031775E-3,1.1094674E-1,1.9936327E-2,-3.299837E-4,3.677309E-3,7.1029565E-3,-3.375709E-4,-1.3732965E-3,1.7647025E-3],"categories":[],"categories_nodes":[],"categories_segments":[],"categories_sizes":[],"default_left":[0,0,0,0,0,0,0,0,0,0,0,0,0],"id":69,"left_children":[1,3,5,7,-1,9,11,-1,-1,-1,-1,-1,-1],"loss_changes":[6.1446756E-2,5.2650247E-2,3.743585E-2,3.7819073E-2,0E0,1.926846E-2,4.3920834E-2,0E0,0E0,0E0,0E0,0E0,0E0],"parents":[2147483647,0,0,1,1,2,2,3,3,5,5,6,6],"right_children":[2,4,6,8,-1,10,12,-1,-1,-1,-1,-1,-1],"split_conditions":[7.4978137E-1,6.4876926E-1,7.599081E-1,6.286904E-1,-6.031775E-3,5.927427E-1,6.243475E-1,-3.299837E-4,3.677309E-3,7.1029565E-3,-3.375709E-4,-1.3732965E-3,1.7647025E-3],"split_indices":[0,1,0,1,0,1,1,0,0,0,0,0,0],"split_type":[0,0,0,0,0,0,0,0,0,0,0,0,0],"sum_hessian":[3.96E2,3.34E2,6.2E1,3.31E2,3E0,4E0,5.8E1,3.26E2,5E0,3E0,1E0,1.4E1,4.4E1],"tree_param":{"num_deleted":"0","num_feature":"3","num_nodes":"13","size_leaf_vector":"1"}},{"base_weights":[-2.0029193E-3,-6.688689E-5,-4.071985E-2,-1.4145636E-2,6.2406603E-3,-8.1532516E-2,-7.3361127E-3,-5.417924E-4,-4.1403957E-3,2.1978661E-4,2.757766E-3,-5.861432E-3,8.5186167E-4,6.3812966E-4,-3.2593429E-3],"categories":[],"categories_nodes":[],"categories_segments":[],"categories_sizes":[],"default_left":[0,0,0,0,0,0,0,0,0,0,0,0,0,0,0],"id":70,"left_children":[1,3,5,7,9,11,13,-1,-1,-1,-1,-1,-1,-1,-1],"loss_changes":[2.8331116E-2,3.2145936E-2,2.3926497E-2,2.4555553E-2,2.2318564E-2,3.0145716E-2,1.362193E-2,0E0,0E0,0E0,0E0,0E0,0E0,0E0,0E0],"parents":[2147483647,0,0,1,1,2,2,3,3,4,4,5,5,6,6],"right_children":[2,4,6,8,10,12,14,-1,-1,-1,-1,-1,-1,-1,-1],"split_conditions":[9.966447E-1,8.060705E-1,3.7583187E-1,7.9134077E-1,9.8898E-1,1.0278182E0,5.653038E-1,-5.417924E-4,-4.1403957E-3,2.1978661E-4,2.757766E-3,-5.861432E-3,8.5186167E-4,6.3812966E-4,-3.2593429E-3],"split_indices":[2,2,0,2,2,2,1,0,0,0,0,0,0,0,0],"split_type":[0,0,0,0,0,0,0,0,0,0,0,0,0,0,0],"sum_hessian":[3.77E2,3.6E2,1.7E1,1.11E2,2.49E2,7E0,1E1,1.07E2,4E0,2.41E2,8E0,5E0,2E0,8E0,2E0],"tree_param":{"num_deleted":"0","num_feature":"3","num_nodes":"15","size_leaf_vector":"1"}},{"base_weights":[1.1665472E-3,-9.931278E-3,1.2203658E-2,-7.317949E-3,-6.4869195E-2,-5.9351124E-2,1.4321044E-2,-2.7090888E-3,-2.7622774E-4,-5.6889406E-3,1.2356259E-3,-7.1257824E-4,-3.9169006E-3,4.4702194E-3,6.1508385E-4],"categories":[],"categories_nodes":[],"categories_segments":[],"categories_sizes":[],"default_left":[0,0,0,0,0,0,0,0,0,0,0,0,0,0,0],"id":71,"left_children":[1,3,5,7,9,11,13,-1,-1,-1,-1,-1,-1,-1,-1],"loss_changes":[4.9361344E-2,2.8383033E-2,3.1454805E-2,1.5921418E-2,4.2244427E-2,4.0213633E-3,2.8769482E-2,0E0,0E0,0E0,0E0,0E0,0E0,0E0,0E0],"parents":[2147483647,0,0,1,1,2,2,3,3,4,4,5,5,6,6],"right_children":[2,4,6,8,10,12,14,-1,-1,-1,-1,-1,-1,-1,-1],"split_conditions":[4.6657294E-1,9.9969614E-1,6.907801E-1,1.2456036E-1,1.0278182E0,5.217498E-1,4.75251E-1,-2.7090888E-3,-2.7622774E-4,-5.6889406E-3,1.2356259E-3,-7.1257824E-4,-3.9169006E-3,4.4702194E-3,6.1508385E-4],"split_indices":[0,2,2,1,2,0,0,0,0,0,0,0,0,0,0],"split_type":[0,0,0,0,0,0,0,0,0,0,0,0,0,0,0],"sum_hessian":[4.01E2,2E2,2.01E2,1.92E2,8E0,5E0,1.96E2,6E0,1.86E2,5E0,3E0,2E0,3E0,4E0,1.92E2],"tree_param":{"num_deleted":"0","num_feature":"3","num_nodes":"15","size_leaf_vector":"1"}},{"base_weights":[2.7804277E-4,-1.0382097E-2,1.37919225E-2,-4.8001356E-2,-8.679876E-3,8.076108E-2,9.9387085E-3,3.9880426E-4,-2.7997775E-3,-2.5938652E-4,-1.3698585E-3,4.4463947E-4,5.760655E-3,-2.262582E-3,8.4081216E-4],"categories":[],"categories_nodes":[],"categories_segments":[],"categories_sizes":[],"default_left":[0,0,0,0,0,0,0,0,0,0,0,0,0,0,0],"id":72,"left_children":[1,3,5,7,9,11,13,-1,-1,-1,-1,-1,-1,-1,-1],"loss_changes":[5.4885935E-2,1.3223089E-2,4.2549163E-2,4.4740736E-3,1.3257394E-2,2.1259509E-2,6.1492734E-2,0E0,0E0,0E0,0E0,0E0,0E0,0E0,0E0],"parents":[2147483647,0,0,1,1,2,2,3,3,4,4,5,5,6,6],"right_children":[2,4,6,8,10,12,14,-1,-1,-1,-1,-1,-1,-1,-1],"split_conditions":[4.3989804E-1,1.2456036E-1,3.0504176E-1,2.0362863E-2,4.1081855E-1,6.180098E-1,4.68581E-1,3.9880426E-4,-2.7997775E-3,-2.5938652E-4,-1.3698585E-3,4.4463947E-4,5.760655E-3,-2.262582E-3,8.4081216E-4],"split_indices":[1,1,0,0,1,2,0,0,0,0,0,0,0,0,0],"split_type":[0,0,0,0,0,0,0,0,0,0,0,0,0,0,0],"sum_hessian":[3.79E2,2.12E2,1.67E2,8E0,2.04E2,8E0,1.59E2,1E0,7E0,1.73E2,3.1E1,3E0,5E0,1.7E1,1.42E2],"tree_param":{"num_deleted":"0","num_feature":"3","num_nodes":"15","size_leaf_vector":"1"}},{"base_weights":[-4.0730974E-4,-1.6866146E-2,4.5749936E-3,-1.920017E-2,5.8776617E-2,1.2656079E-2,-1.0421546E-2,-6.177979E-4,-2.39316E-3,1.3241917E-4,4.275827E-3,-3.4223683E-3,7.127418E-4,-2.9112217E-3,-1.8851993E-4],"categories":[],"categories_nodes":[],"categories_segments":[],"categories_sizes":[],"default_left":[0,0,0,0,0,0,0,0,0,0,0,0,0,0,0],"id":73,"left_children":[1,3,5,7,9,11,13,-1,-1,-1,-1,-1,-1,-1,-1],"loss_changes":[3.2468315E-2,1.7371306E-2,3.697314E-2,1.7064434E-2,4.2761136E-3,2.6649322E-2,3.3800483E-2,0E0,0E0,0E0,0E0,0E0,0E0,0E0,0E0],"parents":[2147483647,0,0,1,1,2,2,3,3,4,4,5,5,6,6],"right_children":[2,4,6,8,10,12,14,-1,-1,-1,-1,-1,-1,-1,-1],"split_conditions":[7.521339E-1,5.9919596E-1,9.3882185E-1,3.926305E-1,2.6844385E-1,1.2456036E-1,9.4339013E-1,-6.177979E-4,-2.39316E-3,1.3241917E-4,4.275827E-3,-3.4223683E-3,7.127418E-4,-2.9112217E-3,-1.8851993E-4],"split_indices":[2,1,2,1,0,1,2,0,0,0,0,0,0,0,0],"split_type":[0,0,0,0,0,0,0,0,0,0,0,0,0,0,0],"sum_hessian":[3.94E2,9.1E1,3.03E2,8.9E1,2E0,1.97E2,1.06E2,7.3E1,1.6E1,1E0,1E0,3E0,1.94E2,1.2E1,9.4E1],"tree_param":{"num_deleted":"0","num_feature":"3","num_nodes":"15","size_leaf_vector":"1"}},{"base_weights":[3.8832612E-3,-4.9436553E-3,1.3750117E-2,-7.5224265E-2,-3.170786E-3,1.1848482E-1,8.911324E-3,-4.708301E-3,-1.5603876E-3,-1.0865469E-3,6.447197E-5,2.7262254E-4,9.260687E-3,6.136311E-3,3.4488915E-4],"categories":[],"categories_nodes":[],"categories_segments":[],"categories_sizes":[],"default_left":[0,0,0,0,0,0,0,0,0,0,0,0,0,0,0],"id":74,"left_children":[1,3,5,7,9,11,13,-1,-1,-1,-1,-1,-1,-1,-1],"loss_changes":[3.377332E-2,2.5304135E-2,9.168664E-2,1.2300443E-3,1.6667299E-2,5.933035E-2,3.948754E-2,0E0,0E0,0E0,0E0,0E0,0E0,0E0,0E0],"parents":[2147483647,0,0,1,1,2,2,3,3,4,4,5,5,6,6],"right_children":[2,4,6,8,10,12,14,-1,-1,-1,-1,-1,-1,-1,-1],"split_conditions":[4.393005E-1,1.2456036E-1,4.4928005E-1,1.6945313E-1,4.2326957E-1,5.549151E-1,1.6945313E-1,-4.708301E-3,-1.5603876E-3,-1.0865469E-3,6.447197E-5,2.7262254E-4,9.260687E-3,6.136311E-3,3.4488915E-4],"split_indices":[1,1,1,0,2,0,0,0,0,0,0,0,0,0,0],"split_type":[0,0,0,0,0,0,0,0,0,0,0,0,0,0,0],"sum_hessian":[3.86E2,2.04E2,1.82E2,4E0,2E2,7E0,1.75E2,2E0,2E0,3.8E1,1.62E2,3E0,4E0,2E0,1.73E2],"tree_param":{"num_deleted":"0","num_feature":"3","num_nodes":"15","size_leaf_vector":"1"}},{"base_weights":[-1.4798638E-3,5.268263E-4,-3.3063572E-2,-1.1258896E-2,6.0444986E-3,-6.337712E-2,-1.1214609E-2,-3.1118555E-4,-3.074595E-3,2.2531436E-3,2.153328E-4,1.3185755E-3,-4.6393475E-3,1.5345732E-3,-2.3240298E-3],"categories":[],"categories_nodes":[],"categories_segments":[],"categories_sizes":[],"default_left":[0,0,0,0,0,0,0,0,0,0,0,0,0,0,0],"id":75,"left_children":[1,3,5,7,9,11,13,-1,-1,-1,-1,-1,-1,-1,-1],"loss_changes":[2.3340786E-2,2.2633381E-2,1.3860282E-2,2.7692802E-2,1.5876379E-2,2.6202355E-2,2.2116581E-2,0E0,0E0,0E0,0E0,0E0,0E0,0E0,0E0],"parents":[2147483647,0,0,1,1,2,2,3,3,4,4,5,5,6,6],"right_children":[2,4,6,8,10,12,14,-1,-1,-1,-1,-1,-1,-1,-1],"split_conditions":[9.966447E-1,8.365317E-1,3.7583187E-1,5.526586E-1,8.5438806E-1,1.0022751E0,4.7244015E-1,-3.1118555E-4,-3.074595E-3,2.2531436E-3,2.153328E-4,1.3185755E-3,-4.6393475E-3,1.5345732E-3,-2.3240298E-3],"split_indices":[2,2,0,1,2,2,1,0,0,0,0,0,0,0,0],"split_type":[0,0,0,0,0,0,0,0,0,0,0,0,0,0,0],"sum_hessian":[3.67E2,3.46E2,2.1E1,1.1E2,2.36E2,8E0,1.3E1,1.01E2,9E0,9E0,2.27E2,2E0,6E0,6E0,7E0],"tree_param":{"num_deleted":"0","num_feature":"3","num_nodes":"15","size_leaf_vector":"1"}},{"base_weights":[-4.125211E-4,-1.798188E-2,3.3771608E-3,-1.3301054E-2,-4.1453402E-2,7.1719517E-3,-1.1914064E-2,-9.2599925E-4,1.1142314E-3,-2.6142106E-3,-4.714219E-4,4.175784E-5,1.0342707E-3,-2.7892715E-3,1.8133223E-5],"categories":[],"categories_nodes":[],"categories_segments":[],"categories_sizes":[],"default_left":[0,0,0,0,0,0,0,0,0,0,0,0,0,0,0],"id":76,"left_children":[1,3,5,7,9,11,13,-1,-1,-1,-1,-1,-1,-1,-1],"loss_changes":[2.5894651E-2,7.0293862E-3,1.8654088E-2,1.1370145E-2,3.3224598E-3,2.199016E-2,3.4490433E-2,0E0,0E0,0E0,0E0,0E0,0E0,0E0,0E0],"parents":[2147483647,0,0,1,1,2,2,3,3,4,4,5,5,6,6],"right_children":[2,4,6,8,10,12,14,-1,-1,-1,-1,-1,-1,-1,-1],"split_conditions":[6.6754717E-1,4.0303162E-1,9.647215E-1,3.7056452E-1,6.180098E-1,5.212845E-1,3.7583187E-1,-9.2599925E-4,1.1142314E-3,-2.6142106E-3,-4.714219E-4,4.175784E-5,1.0342707E-3,-2.7892715E-3,1.8133223E-5],"split_indices":[2,1,2,1,2,1,0,0,0,0,0,0,0,0,0],"split_type":[0,0,0,0,0,0,0,0,0,0,0,0,0,0,0],"sum_hessian":[3.87E2,6.8E1,3.19E2,5.8E1,1E1,2.56E2,6.3E1,5.1E1,7E0,7E0,3E0,1.75E2,8.1E1,1.3E1,5E1],"tree_param":{"num_deleted":"0","num_feature":"3","num_nodes":"15","size_leaf_vector":"1"}},{"base_weights":[-2.8037238E-3,-5.931659E-3,1.5567108E-2,-3.4205536E-3,-5.4684434E-2,6.139121E-2,8.840391E-3,-2.8120805E-4,6.672324E-3,-3.8878582E-3,-6.955666E-4,3.6080189E-3,1.1489432E-3,-4.170277E-3,8.251508E-4],"categories":[],"categories_nodes":[],"categories_segments":[],"categories_sizes":[],"default_left":[0,0,0,0,0,0,0,0,0,0,0,0,0,0,0],"id":77,"left_children":[1,3,5,7,9,11,13,-1,-1,-1,-1,-1,-1,-1,-1],"loss_changes":[2.2100583E-2,3.9967813E-2,1.671904E-2,9.515169E-2,1.3970237E-2,1.2375191E-3,3.6718737E-2,0E0,0E0,0E0,0E0,0E0,0E0,0E0,0E0],"parents":[2147483647,0,0,1,1,2,2,3,3,4,4,5,5,6,6],"right_children":[2,4,6,8,10,12,14,-1,-1,-1,-1,-1,-1,-1,-1],"split_conditions":[6.0758007E-1,7.599081E-1,6.231815E-1,7.4796045E-1,7.99608E-1,6.83035E-1,6.286904E-1,-2.8120805E-4,6.672324E-3,-3.8878582E-3,-6.955666E-4,3.6080189E-3,1.1489432E-3,-4.170277E-3,8.251508E-4],"split_indices":[1,0,1,0,0,0,1,0,0,0,0,0,0,0,0],"split_type":[0,0,0,0,0,0,0,0,0,0,0,0,0,0,0],"sum_hessian":[3.82E2,3.27E2,5.5E1,3.12E2,1.5E1,6E0,4.9E1,3.08E2,4E0,9E0,6E0,4E0,2E0,3E0,4.6E1],"tree_param":{"num_deleted":"0","num_feature":"3","num_nodes":"15","size_leaf_vector":"1"}},{"base_weights":[-4.822296E-4,-1.5318371E-2,2.9501352E-3,-1.0798168E-2,-5.7040572E-2,-5.0369184E-2,3.9563756E-3,-9.531541E-4,8.448378E-5,-6.599462E-4,-3.5968726E-3,5.927041E-4,-3.2592327E-3,3.6494344E-4,-7.168771E-4],"categories":[],"categories_nodes":[],"categories_segments":[],"categories_sizes":[],"default_left":[0,0,0,0,0,0,0,0,0,0,0,0,0,0,0],"id":78,"left_children":[1,3,5,7,9,11,13,-1,-1,-1,-1,-1,-1,-1,-1],"loss_changes":[2.0057948E-2,1.3339937E-2,1.7367939E-2,7.0505543E-3,3.6222301E-3,6.3039046E-3,1.9366046E-2,0E0,0E0,0E0,0E0,0E0,0E0,0E0,0E0],"parents":[2147483647,0,0,1,1,2,2,3,3,4,4,5,5,6,6],"right_children":[2,4,6,8,10,12,14,-1,-1,-1,-1,-1,-1,-1,-1],"split_conditions":[6.907801E-1,4.5981172E-1,1.7088741E-1,4.2326957E-1,3.841419E-1,2.0362863E-2,6.231815E-1,-9.531541E-4,8.448378E-5,-6.599462E-4,-3.5968726E-3,5.927041E-4,-3.2592327E-3,3.6494344E-4,-7.168771E-4],"split_indices":[2,0,1,2,1,0,1,0,0,0,0,0,0,0,0],"split_type":[0,0,0,0,0,0,0,0,0,0,0,0,0,0,0],"sum_hessian":[3.92E2,7.3E1,3.19E2,6.7E1,6E0,5E0,3.14E2,4E1,2.7E1,2E0,4E0,1E0,4E0,2.66E2,4.8E1],"tree_param":{"num_deleted":"0","num_feature":"3","num_nodes":"15","size_leaf_vector":"1"}},{"base_weights":[-5.3351E-4,-2.553496E-3,2.5674186E-3,-1.82958E-2,1.2510902E-3,-7.2433974E-4,-2.9842455E-3,4.1428502E-4,-6.7286816E-4],"categories":[],"categories_nodes":[],"categories_segments":[],"categories_sizes":[],"default_left":[0,0,0,0,0,0,0,0,0],"id":79,"left_children":[1,3,-1,5,7,-1,-1,-1,-1],"loss_changes":[4.1946586E-2,2.3081677E-2,0E0,1.095921E-2,3.2290127E-2,0E0,0E0,0E0,0E0],"parents":[2147483647,0,0,1,1,3,3,4,4],"right_children":[2,4,-1,6,8,-1,-1,-1,-1],"split_conditions":[9.328212E-1,6.907801E-1,2.5674186E-3,4.5981172E-1,9.3882185E-1,-7.2433974E-4,-2.9842455E-3,4.1428502E-4,-6.7286816E-4],"split_indices":[0,2,0,0,2,0,0,0,0],"split_type":[0,0,0,0,0,0,0,0,0],"sum_hessian":[3.98E2,3.84E2,1.4E1,7.4E1,3.1E2,6.9E1,5E0,2.1E2,1E2],"tree_param":{"num_deleted":"0","num_feature":"3","num_nodes":"9","size_leaf_vector":"1"}},{"base_weights":[1.2594705E-3,-1.0716107E-2,8.195276E-3,-7.6345685E-3,-5.7560275E-3,3.333553E-2,3.5629459E-3,-5.5707543E-4,1.2236612E-3,2.4650798E-3,-3.0016878E-3,-5.353309E-4,5.5980735E-4],"categories":[],"categories_nodes":[],"categories_segments":[],"categories_sizes":[],"default_left":[0,0,0,0,0,0,0,0,0,0,0,0,0],"id":80,"left_children":[1,3,5,7,-1,9,11,-1,-1,-1,-1,-1,-1],"loss_changes":[3.2149088E-2,4.480625E-2,2.8413426E-2,1.5924085E-2,0E0,5.9607886E-2,2.2775743E-2,0E0,0E0,0E0,0E0,0E0,0E0],"parents":[2147483647,0,0,1,1,2,2,3,3,5,5,6,6],"right_children":[2,4,6,8,-1,10,12,-1,-1,-1,-1,-1,-1],"split_conditions":[3.492342E-1,1.0022751E0,3.3710173E-1,4.608142E-1,-5.7560275E-3,9.3882185E-1,9.002378E-1,-5.5707543E-4,1.2236612E-3,2.4650798E-3,-3.0016878E-3,-5.353309E-4,5.5980735E-4],"split_indices":[1,2,0,0,0,2,2,0,0,0,0,0,0],"split_type":[0,0,0,0,0,0,0,0,0,0,0,0,0],"sum_hessian":[3.85E2,1.41E2,2.44E2,1.38E2,3E0,3.7E1,2.07E2,1.25E2,1.3E1,3.2E1,5E0,7.2E1,1.35E2],"tree_param":{"num_deleted":"0","num_feature":"3","num_nodes":"13","size_leaf_vector":"1"}},{"base_weights":[2.9084753E-4,-1.13343615E-2,6.2208893E-3,-9.194094E-3,-4.765361E-3,5.133056E-2,2.8449711E-3,-1.0243551E-3,5.989651E-5,-1.4795248E-3,3.2046367E-3,-4.993429E-3,2.5574252E-4],"categories":[],"categories_nodes":[],"categories_segments":[],"categories_sizes":[],"default_left":[0,0,0,0,0,0,0,0,0,0,0,0,0],"id":81,"left_children":[1,3,5,7,-1,9,11,-1,-1,-1,-1,-1,-1],"loss_changes":[2.5508624E-2,2.1589288E-2,3.7164174E-2,1.4459479E-2,0E0,1.9452926E-2,5.3901553E-2,0E0,0E0,0E0,0E0,0E0,0E0],"parents":[2147483647,0,0,1,1,2,2,3,3,5,5,6,6],"right_children":[2,4,6,8,-1,10,12,-1,-1,-1,-1,-1,-1],"split_conditions":[3.492342E-1,1.0022751E0,2.1013269E-1,3.0179712E-1,-4.765361E-3,3.406852E-1,2.2853957E-1,-1.0243551E-3,5.989651E-5,-1.4795248E-3,3.2046367E-3,-4.993429E-3,2.5574252E-4],"split_indices":[1,2,0,0,0,2,0,0,0,0,0,0,0],"split_type":[0,0,0,0,0,0,0,0,0,0,0,0,0],"sum_hessian":[3.68E2,1.24E2,2.44E2,1.22E2,2E0,1.6E1,2.28E2,5.8E1,6.4E1,2E0,1.4E1,4E0,2.24E2],"tree_param":{"num_deleted":"0","num_feature":"3","num_nodes":"13","size_leaf_vector":"1"}},{"base_weights":[-1.5047204E-3,-5.466563E-3,7.7851345E-3,-3.4557474E-3,-4.665448E-2,3.747186E-2,-4.216028E-4,-2.220651E-4,6.516823E-3,-1.088133E-3,-3.244069E-3,4.5009325E-3,-2.118318E-3,-3.5333459E-3,4.336964E-4],"categories":[],"categories_nodes":[],"categories_segments":[],"categories_sizes":[],"default_left":[0,0,0,0,0,0,0,0,0,0,0,0,0,0,0],"id":82,"left_children":[1,3,5,7,9,11,13,-1,-1,-1,-1,-1,-1,-1,-1],"loss_changes":[1.4764537E-2,2.3111567E-2,2.9251536E-2,3.6049083E-2,4.4861194E-3,1.1289005E-1,6.1310206E-2,0E0,0E0,0E0,0E0,0E0,0E0,0E0,0E0],"parents":[2147483647,0,0,1,1,2,2,3,3,4,4,5,5,6,6],"right_children":[2,4,6,8,10,12,14,-1,-1,-1,-1,-1,-1,-1,-1],"split_conditions":[5.212845E-1,6.860138E-1,5.552818E-1,6.8574655E-1,4.92574E-1,9.360507E-1,8.4941655E-1,-2.220651E-4,6.516823E-3,-1.088133E-3,-3.244069E-3,4.5009325E-3,-2.118318E-3,-3.5333459E-3,4.336964E-4],"split_indices":[1,0,1,0,1,2,2,0,0,0,0,0,0,0,0],"split_type":[0,0,0,0,0,0,0,0,0,0,0,0,0,0,0],"sum_hessian":[3.99E2,2.8E2,1.19E2,2.68E2,1.2E1,2.5E1,9.4E1,2.67E2,1E0,6E0,6E0,1.5E1,1E1,1E1,8.4E1],"tree_param":{"num_deleted":"0","num_feature":"3","num_nodes":"15","size_leaf_vector":"1"}},{"base_weights":[4.0419423E-4,-6.926336E-3,9.333322E-3,-1.2738244E-2,2.6304321E-3,8.328654E-2,5.267585E-3,-4.2492602E-4,-2.7213634E-3,-9.045978E-4,4.208752E-4,-1.2908777E-3,8.786666E-3,5.6045623E-3,1.6406873E-4],"categories":[],"categories_nodes":[],"categories_segments":[],"categories_sizes":[],"default_left":[0,0,0,0,0,0,0,0,0,0,0,0,0,0,0],"id":83,"left_children":[1,3,5,7,9,11,13,-1,-1,-1,-1,-1,-1,-1,-1],"loss_changes":[2.5264911E-2,1.1808637E-2,5.187861E-2,2.2868445E-2,9.865966E-3,9.5313914E-2,3.4853123E-2,0E0,0E0,0E0,0E0,0E0,0E0,0E0,0E0],"parents":[2147483647,0,0,1,1,2,2,3,3,4,4,5,5,6,6],"right_children":[2,4,6,8,10,12,14,-1,-1,-1,-1,-1,-1,-1,-1],"split_conditions":[4.393005E-1,4.2100266E-1,4.4928005E-1,4.139473E-1,5.684604E-1,4.608142E-1,1.6945313E-1,-4.2492602E-4,-2.7213634E-3,-9.045978E-4,4.208752E-4,-1.2908777E-3,8.786666E-3,5.6045623E-3,1.6406873E-4],"split_indices":[1,0,1,1,2,0,0,0,0,0,0,0,0,0,0],"split_type":[0,0,0,0,0,0,0,0,0,0,0,0,0,0,0],"sum_hessian":[3.84E2,2.11E2,1.73E2,1.31E2,8E1,8E0,1.65E2,1.2E2,1.1E1,1.7E1,6.3E1,4E0,4E0,2E0,1.63E2],"tree_param":{"num_deleted":"0","num_feature":"3","num_nodes":"15","size_leaf_vector":"1"}},{"base_weights":[-6.1831466E-4,-2.6549576E-3,2.8897006E-2,-1.0326024E-3,-7.431509E-2,4.442234E-2,-2.7670274E-2,-1.2228347E-4,3.4783196E-3,-6.345093E-3,-8.691335E-4,2.8717034E-3,-1.0991544E-3,-3.9451434E-3,2.493164E-3],"categories":[],"categories_nodes":[],"categories_segments":[],"categories_sizes":[],"default_left":[0,0,0,0,0,0,0,0,0,0,0,0,0,0,0],"id":84,"left_children":[1,3,5,7,9,11,13,-1,-1,-1,-1,-1,-1,-1,-1],"loss_changes":[2.3280015E-2,4.2008728E-2,2.3184827E-2,3.5585333E-2,2.1745238E-2,1.8543564E-2,2.7767826E-2,0E0,0E0,0E0,0E0,0E0,0E0,0E0,0E0],"parents":[2147483647,0,0,1,1,2,2,3,3,4,4,5,5,6,6],"right_children":[2,4,6,8,10,12,14,-1,-1,-1,-1,-1,-1,-1,-1],"split_conditions":[8.513156E-1,8.307073E-1,9.8194236E-1,8.081043E-1,6.509968E-1,8.146847E-1,9.1817653E-1,-1.2228347E-4,3.4783196E-3,-6.345093E-3,-8.691335E-4,2.8717034E-3,-1.0991544E-3,-3.9451434E-3,2.493164E-3],"split_indices":[0,0,2,0,1,1,0,0,0,0,0,0,0,0,0],"split_type":[0,0,0,0,0,0,0,0,0,0,0,0,0,0,0],"sum_hessian":[3.85E2,3.61E2,2.4E1,3.54E2,7E0,1.9E1,5E0,3.48E2,6E0,3E0,4E0,1.6E1,3E0,3E0,2E0],"tree_param":{"num_deleted":"0","num_feature":"3","num_nodes":"15","size_leaf_vector":"1"}},{"base_weights":[5.4017035E-4,-8.981176E-3,6.044321E-3,-6.146659E-3,-5.3326287E-3,3.4048736E-2,2.198063E-3,-4.6723938E-4,1.1766207E-3,5.805793E-4,4.714973E-3,-3.5684523E-3,1.6001858E-4],"categories":[],"categories_nodes":[],"categories_segments":[],"categories_sizes":[],"default_left":[0,0,0,0,0,0,0,0,0,0,0,0,0],"id":85,"left_children":[1,3,5,7,-1,9,11,-1,-1,-1,-1,-1,-1],"loss_changes":[2.05978E-2,3.921101E-2,2.6745506E-2,1.360327E-2,0E0,3.9460674E-2,1.6450534E-2,0E0,0E0,0E0,0E0,0E0,0E0],"parents":[2147483647,0,0,1,1,2,2,3,3,5,5,6,6],"right_children":[2,4,6,8,-1,10,12,-1,-1,-1,-1,-1,-1],"split_conditions":[3.5362175E-1,1.0022751E0,3.0927482E-1,4.608142E-1,-5.3326287E-3,2.6844385E-1,3.1831145E-1,-4.6723938E-4,1.1766207E-3,5.805793E-4,4.714973E-3,-3.5684523E-3,1.6001858E-4],"split_indices":[1,2,0,0,0,0,0,0,0,0,0,0,0],"split_type":[0,0,0,0,0,0,0,0,0,0,0,0,0],"sum_hessian":[3.91E2,1.43E2,2.48E2,1.4E2,3E0,2.9E1,2.19E2,1.27E2,1.3E1,2.2E1,7E0,2E0,2.17E2],"tree_param":{"num_deleted":"0","num_feature":"3","num_nodes":"13","size_leaf_vector":"1"}},{"base_weights":[2.3788016E-4,-1.3353431E-3,2.196701E-3,4.5123612E-4,-4.9222376E-2,-4.8316568E-5,3.7657672E-3,2.0712556E-3,-2.9690904E-3],"categories":[],"categories_nodes":[],"categories_segments":[],"categories_sizes":[],"default_left":[0,0,0,0,0,0,0,0,0],"id":86,"left_children":[1,3,-1,5,7,-1,-1,-1,-1],"loss_changes":[2.7693668E-2,3.330271E-2,0E0,3.997575E-2,1.5352875E-2,0E0,0E0,0E0,0E0],"parents":[2147483647,0,0,1,1,3,3,4,4],"right_children":[2,4,-1,6,8,-1,-1,-1,-1],"split_conditions":[9.328212E-1,8.307073E-1,2.196701E-3,8.0885947E-1,8.665739E-1,-4.8316568E-5,3.7657672E-3,2.0712556E-3,-2.9690904E-3],"split_indices":[0,0,0,0,2,0,0,0,0],"split_type":[0,0,0,0,0,0,0,0,0],"sum_hessian":[4.01E2,3.88E2,1.3E1,3.75E2,1.3E1,3.69E2,6E0,1E0,1.2E1],"tree_param":{"num_deleted":"0","num_feature":"3","num_nodes":"9","size_leaf_vector":"1"}},{"base_weights":[9.392797E-5,-4.7010396E-2,9.61392E-4,6.391853E-4,-5.9106696E-2,-1.6990593E-2,3.3024186E-3,-4.3426296E-3,-1.1760303E-3,-1.6980481E-3,-3.9695282E-4,4.924089E-4,-3.4689758E-4],"categories":[],"categories_nodes":[],"categories_segments":[],"categories_sizes":[],"default_left":[0,0,0,0,0,0,0,0,0,0,0,0,0],"id":87,"left_children":[1,3,5,-1,7,9,11,-1,-1,-1,-1,-1,-1],"loss_changes":[1.5817663E-2,5.8186147E-3,1.6026018E-2,0E0,3.8813818E-3,6.4891297E-3,2.265777E-2,0E0,0E0,0E0,0E0,0E0,0E0],"parents":[2147483647,0,0,1,1,2,2,4,4,5,5,6,6],"right_children":[2,4,6,-1,8,10,12,-1,-1,-1,-1,-1,-1],"split_conditions":[1.2456036E-1,2.0362863E-2,4.2326957E-1,6.391853E-4,1.6945313E-1,2.2853957E-1,9.267324E-1,-4.3426296E-3,-1.1760303E-3,-1.6980481E-3,-3.9695282E-4,4.924089E-4,-3.4689758E-4],"split_indices":[1,0,2,0,0,0,2,0,0,0,0,0,0],"split_type":[0,0,0,0,0,0,0,0,0,0,0,0,0],"sum_hessian":[3.85E2,6E0,3.79E2,1E0,5E0,4.3E1,3.36E2,2E0,3E0,1.4E1,2.9E1,2.05E2,1.31E2],"tree_param":{"num_deleted":"0","num_feature":"3","num_nodes":"13","size_leaf_vector":"1"}},{"base_weights":[-7.3703835E-5,1.1340353E-3,-2.7350063E-2,-3.9500564E-2,1.9933E-3,-9.7170696E-2,9.839426E-3,6.232053E-4,-2.435234E-3,4.2010808E-5,1.397862E-3,4.745409E-4,-6.020058E-3,1.4543295E-3,-1.1461962E-3],"categories":[],"categories_nodes":[],"categories_segments":[],"categories_sizes":[],"default_left":[0,0,0,0,0,0,0,0,0,0,0,0,0,0,0],"id":88,"left_children":[1,3,5,7,9,11,13,-1,-1,-1,-1,-1,-1,-1,-1],"loss_changes":[1.3208105E-2,1.3486433E-2,4.50982E-2,4.43337E-3,1.126336E-2,1.600948E-2,8.233997E-3,0E0,0E0,0E0,0E0,0E0,0E0,0E0,0E0],"parents":[2147483647,0,0,1,1,2,2,3,3,4,4,5,5,6,6],"right_children":[2,4,6,8,10,12,14,-1,-1,-1,-1,-1,-1,-1,-1],"split_conditions":[1.0022751E0,1.2456036E-1,3.7583187E-1,2.0362863E-2,9.1817653E-1,1.8131626E-1,5.704452E-1,6.232053E-4,-2.435234E-3,4.2010808E-5,1.397862E-3,4.745409E-4,-6.020058E-3,